{"learner":{"attributes":{"scikit_learn":"{\"_estimator_type\": \"classifier\"}"},"feature_names":["sentiment","rsi","sma_ratio","volatility","momentum"],"feature_types":["float","float","float","float","float"],"gradient_booster":{"model":{"cats":{"enc":[],"feature_segments":[],"sorted_idx":[]},"gbtree_model_param":{"num_parallel_tree":"1","num_trees":"100"},"iteration_indptr":[0,1,2,3,4,5,6,7,8,9,10,11,12,13,14,15,16,17,18,19,20,21,22,23,24,25,26,27,28,29,30,31,32,33,34,35,36,37,38,39,40,41,42,43,44,45,46,47,48,49,50,51,52,53,54,55,56,57,58,59,60,61,62,63,64,65,66,67,68,69,70,71,72,73,74,75,76,77,78,79,80,81,82,83,84,85,86,87,88,89,90,91,92,93,94,95,96,97,98,99,100],"tree_info":[0,0,0,0,0,0,0,0,0,0,0,0,0,0,0,0,0,0,0,0,0,0,0,0,0,0,0,0,0,0,0,0,0,0,0,0,0,0,0,0,0,0,0,0,0,0,0,0,0,0,0,0,0,0,0,0,0,0,0,0,0,0,0,0,0,0,0,0,0,0,0,0,0,0,0,0,0,0,0,0,0,0,0,0,0,0,0,0,0,0,0,0,0,0,0,0,0,0,0,0],"trees":[{"base_weights":[4.167493E-8,2.9504428E-2,-1.2140648E-1,3.3761747E-2,-5.717795E-1,2.6833963E-2,-2.145838E-1,-4.0961686E-3,7.525623E-2,-8.8283226E-2,-1.101204E0,-7.528104E-2,1.6098851E-1,-4.4169015E-1,-1.4341442E-1,2.1063833E-2,-3.451467E-3,2.580349E-2,5.451782E-3,-2.9586827E-2,3.908318E-2,-1.8877484E-2,-1.1966594E-1,-2.1493318E-2,6.9773914E-3,1.0308478E-1,1.3235608E-2,-5.4946106E-2,8.779518E-3,-2.089313E-3,-2.4056364E-2],"categories":[],"categories_nodes":[],"categories_segments":[],"categories_sizes":[],"default_left":[0,0,0,0,0,0,0,0,0,0,0,0,0,0,0,0,0,0,0,0,0,0,0,0,0,0,0,0,0,0,0],"id":0,"left_children":[1,3,5,7,9,11,13,15,17,19,21,23,25,27,29,-1,-1,-1,-1,-1,-1,-1,-1,-1,-1,-1,-1,-1,-1,-1,-1],"loss_changes":[2.1971485E1,1.2651188E1,1.657008E1,7.6990333E0,8.797647E0,6.36493E0,1.1840363E1,1.675293E1,8.848896E0,2.03013E0,1.2111511E0,5.362747E0,4.863329E0,1.0048256E1,6.687149E0,0E0,0E0,0E0,0E0,0E0,0E0,0E0,0E0,0E0,0E0,0E0,0E0,0E0,0E0,0E0,0E0],"parents":[2147483647,0,0,1,1,2,2,3,3,4,4,5,5,6,6,7,7,8,8,9,9,10,10,11,11,12,12,13,13,14,14],"right_children":[2,4,6,8,10,12,14,16,18,20,22,24,26,28,30,-1,-1,-1,-1,-1,-1,-1,-1,-1,-1,-1,-1,-1,-1,-1,-1],"split_conditions":[5.9783108E1,1.2364648E3,2.7535782E2,2.4089143E2,-4.1125572E-1,6.366212E1,3.4223975E2,4.0400124E1,2.579686E2,-7.000109E-1,9.798772E-1,1.002574E0,1.0013448E0,6.96502E1,6.600557E1,2.1063833E-2,-3.451467E-3,2.580349E-2,5.451782E-3,-2.9586827E-2,3.908318E-2,-1.8877484E-2,-1.1966594E-1,-2.1493318E-2,6.9773914E-3,1.0308478E-1,1.3235608E-2,-5.4946106E-2,8.779518E-3,-2.089313E-3,-2.4056364E-2],"split_indices":[1,3,3,3,4,1,3,1,3,4,2,2,2,1,1,0,0,0,0,0,0,0,0,0,0,0,0,0,0,0,0],"split_type":[0,0,0,0,0,0,0,0,0,0,0,0,0,0,0,0,0,0,0,0,0,0,0,0,0,0,0,0,0,0,0],"sum_hessian":[6.131817E3,4.9336025E3,1.1982142E3,4.8998535E3,3.3748993E1,4.6273618E2,7.35478E2,2.5626736E3,2.3371802E3,1.8249454E1,1.5499537E1,2.6299216E2,1.9974403E2,1.742448E2,5.612332E2,3.1724054E2,2.2454329E3,2.3699292E2,2.1001873E3,1.2999612E1,5.249843E0,1.7499478E0,1.3749589E1,1.33746E2,1.2924614E2,5.249843E0,1.9449419E2,1.4474568E2,2.9499119E1,2.4874257E2,3.1249066E2],"tree_param":{"num_deleted":"0","num_feature":"5","num_nodes":"31","size_leaf_vector":"1"}},{"base_weights":[-8.153298E-6,2.6539052E-2,-1.0925164E-1,3.039706E-2,-5.190119E-1,2.4374237E-2,-1.9324277E-1,-3.6794976E-3,6.774884E-2,-7.8974895E-2,-1.0020038E0,-6.78093E-2,1.455014E-1,-3.9794308E-1,-1.2911966E-1,1.8968543E-2,-3.106426E-3,2.3241416E-2,4.9070637E-3,-2.68409E-2,3.581887E-2,-1.7676022E-2,-1.0881658E-1,-1.6998488E-2,9.420053E-3,9.469135E-2,1.1920254E-2,-4.9512103E-2,7.930889E-3,-1.8811979E-3,-2.1658655E-2],"categories":[],"categories_nodes":[],"categories_segments":[],"categories_sizes":[],"default_left":[0,0,0,0,0,0,0,0,0,0,0,0,0,0,0,0,0,0,0,0,0,0,0,0,0,0,0,0,0,0,0],"id":1,"left_children":[1,3,5,7,9,11,13,15,17,19,21,23,25,27,29,-1,-1,-1,-1,-1,-1,-1,-1,-1,-1,-1,-1,-1,-1,-1,-1],"loss_changes":[1.7787737E1,1.0401342E1,1.3462667E1,6.237915E0,7.2968693E0,5.1874022E0,9.614729E0,1.3580999E1,7.179558E0,1.689939E0,9.77993E-1,4.385889E0,4.1172233E0,8.163692E0,5.4204884E0,0E0,0E0,0E0,0E0,0E0,0E0,0E0,0E0,0E0,0E0,0E0,0E0,0E0,0E0,0E0,0E0],"parents":[2147483647,0,0,1,1,2,2,3,3,4,4,5,5,6,6,7,7,8,8,9,9,10,10,11,11,12,12,13,13,14,14],"right_children":[2,4,6,8,10,12,14,16,18,20,22,24,26,28,30,-1,-1,-1,-1,-1,-1,-1,-1,-1,-1,-1,-1,-1,-1,-1,-1],"split_conditions":[5.9783108E1,1.2364648E3,2.7535782E2,2.4089143E2,-4.1125572E-1,6.366212E1,3.4223975E2,4.0400124E1,2.579686E2,-7.000109E-1,9.798772E-1,1.0028913E0,1.0013448E0,6.96502E1,6.600557E1,1.8968543E-2,-3.106426E-3,2.3241416E-2,4.9070637E-3,-2.68409E-2,3.581887E-2,-1.7676022E-2,-1.0881658E-1,-1.6998488E-2,9.420053E-3,9.469135E-2,1.1920254E-2,-4.9512103E-2,7.930889E-3,-1.8811979E-3,-2.1658655E-2],"split_indices":[1,3,3,3,4,1,3,1,3,4,2,2,2,1,1,0,0,0,0,0,0,0,0,0,0,0,0,0,0,0,0],"split_type":[0,0,0,0,0,0,0,0,0,0,0,0,0,0,0,0,0,0,0,0,0,0,0,0,0,0,0,0,0,0,0],"sum_hessian":[6.131471E3,4.9333716E3,1.1980992E3,4.899667E3,3.3704994E1,4.626905E2,7.354087E2,2.5626375E3,2.3370293E3,1.8245588E1,1.5459407E1,2.629859E2,1.9970459E2,1.7417703E2,5.612317E2,3.1716885E2,2.2454688E3,2.3692009E2,2.1001091E3,1.2998869E1,5.246719E0,1.7499723E0,1.37094345E1,1.6124406E2,1.0174185E2,5.2329764E0,1.9447162E2,1.446799E2,2.9497135E1,2.4874513E2,3.1248654E2],"tree_param":{"num_deleted":"0","num_feature":"5","num_nodes":"31","size_leaf_vector":"1"}},{"base_weights":[-1.5001902E-5,2.387186E-2,-9.833718E-2,2.736873E-2,-4.7247633E-1,2.2159409E-2,-1.7409264E-1,2.8879093E-2,-7.967774E-1,-7.0652716E-2,-9.1658926E-1,4.4039138E-2,-4.1393405E-1,-8.1591415E-1,-1.5688033E-1,2.6250647E-3,5.396257E-2,-1.3994604E-1,-3.8853895E-2,7.1577257E-3,-6.776169E-2,-1.655282E-2,-9.95323E-2,-1.8249182E-3,3.190988E-2,-7.3732845E-2,5.3192347E-2,-1.4620785E-1,-4.4489484E-2,-3.1577304E-2,-1.0780228E-2],"categories":[],"categories_nodes":[],"categories_segments":[],"categories_sizes":[],"default_left":[0,0,0,0,0,0,0,0,0,0,0,0,0,0,0,0,0,0,0,0,0,0,0,0,0,0,0,0,0,0,0],"id":2,"left_children":[1,3,5,7,9,11,13,15,17,19,21,23,25,27,29,-1,-1,-1,-1,-1,-1,-1,-1,-1,-1,-1,-1,-1,-1,-1,-1],"loss_changes":[1.4403006E1,8.576539E0,1.0945611E1,6.1227474E0,6.1047726E0,4.4415803E0,8.003653E0,6.5536437E0,1.6703777E0,1.7089114E0,8.013916E-1,7.5844626E0,7.196316E0,3.901351E0,5.5657654E0,0E0,0E0,0E0,0E0,0E0,0E0,0E0,0E0,0E0,0E0,0E0,0E0,0E0,0E0,0E0,0E0],"parents":[2147483647,0,0,1,1,2,2,3,3,4,4,5,5,6,6,7,7,8,8,9,9,10,10,11,11,12,12,13,13,14,14],"right_children":[2,4,6,8,10,12,14,16,18,20,22,24,26,28,30,-1,-1,-1,-1,-1,-1,-1,-1,-1,-1,-1,-1,-1,-1,-1,-1],"split_conditions":[5.9783108E1,1.2364648E3,2.7535782E2,1.0106727E0,-4.1125572E-1,6.524585E-1,1.0020152E0,1.0069945E0,5.4355534E1,3.8989895E1,9.798772E-1,4.210901E-1,2.597372E2,3.3086642E2,3.4223975E2,2.6250647E-3,5.396257E-2,-1.3994604E-1,-3.8853895E-2,7.1577257E-3,-6.776169E-2,-1.655282E-2,-9.95323E-2,-1.8249182E-3,3.190988E-2,-7.3732845E-2,5.3192347E-2,-1.4620785E-1,-4.4489484E-2,-3.1577304E-2,-1.0780228E-2],"split_indices":[1,3,3,2,4,4,2,2,1,1,2,4,3,3,3,0,0,0,0,0,0,0,0,0,0,0,0,0,0,0,0],"split_type":[0,0,0,0,0,0,0,0,0,0,0,0,0,0,0,0,0,0,0,0,0,0,0,0,0,0,0,0,0,0,0],"sum_hessian":[6.130571E3,4.9329043E3,1.1976663E3,4.8993325E3,3.3571907E1,4.6258554E2,7.3508075E2,4.8913335E3,7.999094E0,1.8233618E1,1.5338288E1,4.4134152E2,2.1244022E1,1.7986534E1,7.1709424E2,4.8673364E3,2.3997282E1,2.2497451E0,5.7493486E0,1.5486692E1,2.7469246E0,1.7497127E0,1.3588575E1,3.6061298E2,8.072855E1,1.59955225E1,5.2485E0,5.487989E0,1.2498545E1,1.6794136E2,5.4915283E2],"tree_param":{"num_deleted":"0","num_feature":"5","num_nodes":"31","size_leaf_vector":"1"}},{"base_weights":[-1.010659E-4,2.5431272E-2,-7.661635E-2,2.8992945E-2,-4.514725E-1,3.5599656E-3,-1.4222342E-1,2.4422694E-2,3.098994E-1,-9.545017E-2,-8.4176844E-1,-1.4964962E-1,7.134467E-2,-5.8574253E-1,-1.1772055E-1,2.1291922E-3,4.501658E-2,3.9067216E-2,-7.526494E-2,6.4851814E-3,-8.241532E-2,-3.087761E-2,-9.6246295E-2,-2.479911E-3,-5.3940352E-2,1.1187664E-2,-2.3630438E-2,-3.628243E-2,-1.0380053E-1,2.5346605E-3,-1.8300299E-2],"categories":[],"categories_nodes":[],"categories_segments":[],"categories_sizes":[],"default_left":[0,0,0,0,0,0,0,0,0,0,0,0,0,0,0,0,0,0,0,0,0,0,0,0,0,0,0,0,0,0,0],"id":3,"left_children":[1,3,5,7,9,11,13,15,17,19,21,23,25,27,29,-1,-1,-1,-1,-1,-1,-1,-1,-1,-1,-1,-1,-1,-1,-1,-1],"loss_changes":[1.19791565E1,7.8224964E0,8.070475E0,5.8523674E0,4.6638713E0,7.191077E0,9.100744E0,5.9784765E0,6.5582366E0,2.2709045E0,7.4233055E-1,1.0321922E1,6.011961E0,4.0516443E0,7.484392E0,0E0,0E0,0E0,0E0,0E0,0E0,0E0,0E0,0E0,0E0,0E0,0E0,0E0,0E0,0E0,0E0],"parents":[2147483647,0,0,1,1,2,2,3,3,4,4,5,5,6,6,7,7,8,8,9,9,10,10,11,11,12,12,13,13,14,14],"right_children":[2,4,6,8,10,12,14,16,18,20,22,24,26,28,30,-1,-1,-1,-1,-1,-1,-1,-1,-1,-1,-1,-1,-1,-1,-1,-1],"split_conditions":[5.7840187E1,1.2364648E3,2.8507547E2,5.7433613E1,-4.1125572E-1,1.0020152E0,1.0021851E0,1.0720248E3,5.8902856E2,3.8989895E1,9.8324805E-1,1.8677104E-1,5.693251E-1,-1.5345272E-2,6.2375828E1,2.1291922E-3,4.501658E-2,3.9067216E-2,-7.526494E-2,6.4851814E-3,-8.241532E-2,-3.087761E-2,-9.6246295E-2,-2.479911E-3,-5.3940352E-2,1.1187664E-2,-2.3630438E-2,-3.628243E-2,-1.0380053E-1,2.5346605E-3,-1.8300299E-2],"split_indices":[1,3,3,1,4,2,2,3,3,1,2,4,4,4,1,0,0,0,0,0,0,0,0,0,0,0,0,0,0,0,0],"split_type":[0,0,0,0,0,0,0,0,0,0,0,0,0,0,0,0,0,0,0,0,0,0,0,0,0,0,0,0,0,0,0],"sum_hessian":[6.129796E3,4.59662E3,1.5331758E3,4.5634775E3,3.3142345E1,6.904025E2,8.427732E2,4.4914897E3,7.1988045E1,1.7983038E1,1.5159308E1,2.1139401E2,4.7900854E2,4.2923462E1,7.9984973E2,4.459744E3,3.1745462E1,6.748993E1,4.4981184E0,1.5487141E1,2.4958975E0,3.4559603E0,1.1703348E1,1.6091232E2,5.0481686E1,4.2380914E2,5.5199398E1,2.9959034E1,1.2964428E1,2.5080957E2,5.4904016E2],"tree_param":{"num_deleted":"0","num_feature":"5","num_nodes":"31","size_leaf_vector":"1"}},{"base_weights":[-1.6131035E-4,4.2217024E-2,-4.1854404E-2,4.950362E-2,-3.8392586E-1,1.903663E-1,-5.0264414E-2,-1.2411644E-1,6.660206E-2,-5.3881705E-1,4.5950267E-1,-9.0404324E-2,3.7322438E-1,-4.0086883E-1,-4.195247E-2,-1.1087091E-1,-9.059972E-3,7.0989355E-3,-6.38971E-2,-9.7426035E-2,-2.9544303E-2,1.14512995E-1,-8.511332E-2,1.1271799E-2,-1.0061886E-1,1.4324991E-1,2.7200101E-2,2.141172E-2,-4.8507202E-2,-8.207107E-2,-3.9258827E-3],"categories":[],"categories_nodes":[],"categories_segments":[],"categories_sizes":[],"default_left":[0,0,0,0,0,0,0,0,0,0,0,0,0,0,0,0,0,0,0,0,0,0,0,0,0,0,0,0,0,0,0],"id":4,"left_children":[1,3,5,7,9,11,13,15,17,19,21,23,25,27,29,-1,-1,-1,-1,-1,-1,-1,-1,-1,-1,-1,-1,-1,-1,-1,-1],"loss_changes":[1.0832665E1,9.460123E0,6.045162E0,8.885242E0,6.940176E0,5.589877E0,8.676945E0,8.757963E0,8.47402E0,4.3476734E0,8.602094E0,8.202816E0,6.658395E0,3.6754036E0,6.083115E0,0E0,0E0,0E0,0E0,0E0,0E0,0E0,0E0,0E0,0E0,0E0,0E0,0E0,0E0,0E0,0E0],"parents":[2147483647,0,0,1,1,2,2,3,3,4,4,5,5,6,6,7,7,8,8,9,9,10,10,11,11,12,12,13,13,14,14],"right_children":[2,4,6,8,10,12,14,16,18,20,22,24,26,28,30,-1,-1,-1,-1,-1,-1,-1,-1,-1,-1,-1,-1,-1,-1,-1,-1],"split_conditions":[5.0430298E1,1.0018542E0,-3.226289E-1,9.9136406E-1,6.766868E-1,1.000378E0,-2.4005343E-1,3.0084848E2,9.5461E2,4.7915447E1,1.2195046E0,5.523961E1,1.0005317E0,1.7483047E2,9.9755675E-1,-1.1087091E-1,-9.059972E-3,7.0989355E-3,-6.38971E-2,-9.7426035E-2,-2.9544303E-2,1.14512995E-1,-8.511332E-2,1.1271799E-2,-1.0061886E-1,1.4324991E-1,2.7200101E-2,2.141172E-2,-4.8507202E-2,-8.207107E-2,-3.9258827E-3],"split_indices":[1,2,4,2,4,2,4,3,3,1,4,1,2,3,2,0,0,0,0,0,0,0,0,0,0,0,0,0,0,0,0],"split_type":[0,0,0,0,0,0,0,0,0,0,0,0,0,0,0,0,0,0,0,0,0,0,0,0,0,0,0,0,0,0,0],"sum_hessian":[6.128944E3,3.039488E3,3.0894556E3,2.9892588E3,5.0229374E1,1.07219894E2,2.9822358E3,2.674341E2,2.7218247E3,4.2741314E1,7.4880586E0,4.2487614E1,6.4732285E1,6.797024E1,2.9142654E3,7.7480106E0,2.596861E2,2.7058987E3,1.5926045E1,1.424719E1,2.8494123E1,4.999152E0,2.4889061E0,3.5492287E1,6.995326E0,4.499055E0,6.0233227E1,7.9998336E0,5.99704E1,8.9985895E0,2.9052668E3],"tree_param":{"num_deleted":"0","num_feature":"5","num_nodes":"31","size_leaf_vector":"1"}},{"base_weights":[-1.9476793E-4,2.5838777E-2,-5.5391204E-2,2.911978E-2,-3.8129756E-1,-1.3654594E0,-5.101982E-2,-4.716769E-3,6.504876E-2,-3.128337E-2,-7.639087E-1,-2.2922486E-2,-1.5925007E-1,1.1660886E-2,-1.2159347E-1,1.6346091E-2,-3.3615031E-3,5.108445E-3,2.205122E-2,-2.4466041E-2,4.5418855E-2,-9.190575E-2,-3.3276524E-2,-9.000006E-3,7.960362E-3,-2.87682E-2,-6.5492885E-3],"categories":[],"categories_nodes":[],"categories_segments":[],"categories_sizes":[],"default_left":[0,0,0,0,0,0,0,0,0,0,0,0,0,0,0,0,0,0,0,0,0,0,0,0,0,0,0],"id":5,"left_children":[1,3,5,7,9,11,13,15,17,19,21,-1,-1,23,25,-1,-1,-1,-1,-1,-1,-1,-1,-1,-1,-1,-1],"loss_changes":[8.809244E0,5.5757294E0,1.1182186E1,5.025264E0,4.445386E0,1.3105736E0,8.668463E0,1.0355382E1,4.3409376E0,2.0245702E0,7.578316E-1,0E0,0E0,7.180724E0,8.569223E0,0E0,0E0,0E0,0E0,0E0,0E0,0E0,0E0,0E0,0E0,0E0,0E0],"parents":[2147483647,0,0,1,1,2,2,3,3,4,4,5,5,6,6,7,7,8,8,9,9,10,10,13,13,14,14],"right_children":[2,4,6,8,10,12,14,16,18,20,22,-1,-1,24,26,-1,-1,-1,-1,-1,-1,-1,-1,-1,-1,-1,-1],"split_conditions":[5.5698334E1,1.2364648E3,9.989627E-1,2.3791896E2,-4.1125572E-1,1.9016179E2,2.988611E2,4.0400124E1,5.3799667E1,-7.000109E-1,3.3803818E1,-2.2922486E-2,-1.5925007E-1,1.0020152E0,3.567874E2,1.6346091E-2,-3.3615031E-3,5.108445E-3,2.205122E-2,-2.4466041E-2,4.5418855E-2,-9.190575E-2,-3.3276524E-2,-9.000006E-3,7.960362E-3,-2.87682E-2,-6.5492885E-3],"split_indices":[1,3,2,3,4,3,3,1,1,4,1,0,0,2,3,0,0,0,0,0,0,0,0,0,0,0,0],"split_type":[0,0,0,0,0,0,0,0,0,0,0,0,0,0,0,0,0,0,0,0,0,0,0,0,0,0,0],"sum_hessian":[6.128482E3,4.164715E3,1.963767E3,4.132342E3,3.237296E1,5.49534E0,1.9582716E3,2.1285876E3,2.0037542E3,1.7471617E1,1.4901342E1,1.2498823E0,4.2454576E0,1.0375742E3,9.206974E2,3.11443E2,1.8171448E3,1.8398229E3,1.639313E2,1.2481655E1,4.989963E0,1.0125841E1,4.7755013E0,4.155191E2,6.220551E2,2.3142487E2,6.892725E2],"tree_param":{"num_deleted":"0","num_feature":"5","num_nodes":"27","size_leaf_vector":"1"}},{"base_weights":[-2.2341707E-4,1.725752E-2,-7.223051E-2,1.862324E-2,-7.326479E-1,1.7636621E-2,-1.2879495E-1,1.6193112E-2,4.9479446E-1,-1.3090633E-1,-3.4707648E-1,-6.1454505E-2,1.2160475E-1,-2.9247466E-1,-7.7795945E-2,1.7146504E-3,-1.3378698E-1,7.449329E-2,-1.8817704E-2,1.11281835E-1,-8.81383E-2,3.4104154E-2,-9.494576E-3,9.520038E-3,8.9593895E-2,-3.8097043E-2,1.3730948E-2,1.8716004E-3,-1.545196E-2],"categories":[],"categories_nodes":[],"categories_segments":[],"categories_sizes":[],"default_left":[0,0,0,0,0,0,0,0,0,0,0,0,0,0,0,0,0,0,0,0,0,0,0,0,0,0,0,0,0],"id":6,"left_children":[1,3,5,7,9,11,13,15,17,-1,19,21,23,25,27,-1,-1,-1,-1,-1,-1,-1,-1,-1,-1,-1,-1,-1,-1],"loss_changes":[7.7154236E0,5.0648937E0,6.0887165E0,5.689946E0,1.5438375E0,3.8179662E0,6.1122255E0,6.3487735E0,4.4057493E0,0E0,6.2444444E0,3.5890992E0,4.0150576E0,6.6790504E0,4.162262E0,0E0,0E0,0E0,0E0,0E0,0E0,0E0,0E0,0E0,0E0,0E0,0E0,0E0,0E0],"parents":[2147483647,0,0,1,1,2,2,3,3,4,4,5,5,6,6,7,7,8,8,10,10,11,11,12,12,13,13,14,14],"right_children":[2,4,6,8,10,12,14,16,18,-1,20,22,24,26,28,-1,-1,-1,-1,-1,-1,-1,-1,-1,-1,-1,-1,-1,-1],"split_conditions":[5.9783108E1,1.0106727E0,2.7535782E2,1.0069945E0,5.4355534E1,6.366212E1,3.4223975E2,1.7205161E0,7.020402E2,-1.3090633E-1,5.605118E1,9.2868065E1,1.0069945E0,6.96502E1,6.600557E1,1.7146504E-3,-1.3378698E-1,7.449329E-2,-1.8817704E-2,1.11281835E-1,-8.81383E-2,3.4104154E-2,-9.494576E-3,9.520038E-3,8.9593895E-2,-3.8097043E-2,1.3730948E-2,1.8716004E-3,-1.545196E-2],"split_indices":[1,2,3,2,1,1,3,4,3,0,1,3,2,1,1,0,0,0,0,0,0,0,0,0,0,0,0,0,0],"split_type":[0,0,0,0,0,0,0,0,0,0,0,0,0,0,0,0,0,0,0,0,0,0,0,0,0,0,0,0,0],"sum_hessian":[6.1274346E3,4.9310894E3,1.196345E3,4.9230986E3,7.9907255E0,4.6239694E2,7.3394806E2,4.8991304E3,2.3968594E1,2.242758E0,5.7479677E0,2.6284964E2,1.995473E2,1.7323163E2,5.6071643E2,4.89667E3,2.4603932E0,1.7476938E1,6.491656E0,1.2499563E0,4.498011E0,1.9485916E1,2.4336371E2,1.9405315E2,5.4941607E0,1.4374669E2,2.9484936E1,2.4866841E2,3.1204803E2],"tree_param":{"num_deleted":"0","num_feature":"5","num_nodes":"29","size_leaf_vector":"1"}},{"base_weights":[-2.190293E-4,3.3626292E-2,-3.35226E-2,4.0177323E-2,-3.4975642E-1,1.6932958E-1,-4.086548E-2,-1.1404238E-1,5.535548E-2,-4.931621E-1,4.3492264E-1,-1.17516965E-1,3.391448E-1,-3.603196E-1,-3.329433E-2,-1.0161686E-1,-8.334308E-3,6.014189E-3,-4.8206054E-2,-8.886432E-2,-2.7221028E-2,9.048515E-2,-1.0705515E-1,-3.3211985E-4,-9.875475E-2,6.429907E-2,9.45616E-4,-4.9145326E-2,-2.1435572E-4,-1.3434443E-1,-3.1822205E-3],"categories":[],"categories_nodes":[],"categories_segments":[],"categories_sizes":[],"default_left":[0,0,0,0,0,0,0,0,0,0,0,0,0,0,0,0,0,0,0,0,0,0,0,0,0,0,0,0,0,0,0],"id":7,"left_children":[1,3,5,7,9,11,13,15,17,19,21,23,25,27,29,-1,-1,-1,-1,-1,-1,-1,-1,-1,-1,-1,-1,-1,-1,-1,-1],"loss_changes":[6.907799E0,7.647922E0,4.6079574E0,7.0036645E0,5.9722686E0,5.3056207E0,7.199984E0,7.342271E0,7.031188E0,3.5793371E0,6.9380856E0,4.0644484E0,6.8218727E0,3.2366295E0,5.5773134E0,0E0,0E0,0E0,0E0,0E0,0E0,0E0,0E0,0E0,0E0,0E0,0E0,0E0,0E0,0E0,0E0],"parents":[2147483647,0,0,1,1,2,2,3,3,4,4,5,5,6,6,7,7,8,8,9,9,10,10,11,11,12,12,13,13,14,14],"right_children":[2,4,6,8,10,12,14,16,18,20,22,24,26,28,30,-1,-1,-1,-1,-1,-1,-1,-1,-1,-1,-1,-1,-1,-1,-1,-1],"split_conditions":[5.0430298E1,1.0018542E0,-3.226289E-1,9.9136406E-1,6.766868E-1,3.7810608E2,-2.4005343E-1,3.0084848E2,9.27463E2,4.7915447E1,1.408995E0,3.567874E2,5.560853E1,1.0019345E0,9.9598455E-1,-1.0161686E-1,-8.334308E-3,6.014189E-3,-4.8206054E-2,-8.886432E-2,-2.7221028E-2,9.048515E-2,-1.0705515E-1,-3.3211985E-4,-9.875475E-2,6.429907E-2,9.45616E-4,-4.9145326E-2,-2.1435572E-4,-1.3434443E-1,-3.1822205E-3],"split_indices":[1,2,4,2,4,3,4,3,3,1,4,3,1,2,2,0,0,0,0,0,0,0,0,0,0,0,0,0,0,0,0],"split_type":[0,0,0,0,0,0,0,0,0,0,0,0,0,0,0,0,0,0,0,0,0,0,0,0,0,0,0,0,0,0,0],"sum_hessian":[6.126444E3,3.0385034E3,3.0879404E3,2.9883354E3,5.016781E1,1.071024E2,2.9808381E3,2.6717325E2,2.7211624E3,4.273009E1,7.437717E0,3.994185E1,6.716055E1,6.793245E1,2.9129055E3,7.7362394E0,2.59437E2,2.698021E3,2.314139E1,1.4232853E1,2.8497238E1,5.9724083E0,1.4653088E0,3.6194904E1,3.7469416E0,3.445553E1,3.270502E1,4.9454365E1,1.8478088E1,2.2462194E0,2.9106594E3],"tree_param":{"num_deleted":"0","num_feature":"5","num_nodes":"31","size_leaf_vector":"1"}},{"base_weights":[-2.8014032E-4,1.4644581E-2,-6.17894E-2,1.7103236E-2,-3.420563E-1,2.1739159E-2,-1.11611135E-1,1.4330507E-2,4.228041E-1,-3.989955E-2,-6.9152737E-1,-5.932559E-3,4.6691284E-1,-3.5527992E-1,-8.0548555E-2,-1.4724485E-2,2.169201E-3,1.0621847E-1,2.5041608E-2,7.964114E-3,-5.5807948E-2,-8.454282E-2,-2.7430132E-2,2.0106987E-3,-6.1960746E-2,-3.631776E-2,6.555136E-2,-4.5863073E-2,3.5905685E-2,6.8415396E-2,-8.792978E-3],"categories":[],"categories_nodes":[],"categories_segments":[],"categories_sizes":[],"default_left":[0,0,0,0,0,0,0,0,0,0,0,0,0,0,0,0,0,0,0,0,0,0,0,0,0,0,0,0,0,0,0],"id":8,"left_children":[1,3,5,7,9,11,13,15,17,19,21,23,25,27,29,-1,-1,-1,-1,-1,-1,-1,-1,-1,-1,-1,-1,-1,-1,-1,-1],"loss_changes":[5.6252346E0,4.3305016E0,4.9817123E0,5.504095E0,3.5419717E0,5.519937E0,5.645341E0,5.7911634E0,3.39503E0,1.2331821E0,7.706733E-1,6.7662625E0,4.34336E0,6.400445E0,3.8203044E0,0E0,0E0,0E0,0E0,0E0,0E0,0E0,0E0,0E0,0E0,0E0,0E0,0E0,0E0,0E0,0E0],"parents":[2147483647,0,0,1,1,2,2,3,3,4,4,5,5,6,6,7,7,8,8,9,9,10,10,11,11,12,12,13,13,14,14],"right_children":[2,4,6,8,10,12,14,16,18,20,22,24,26,28,30,-1,-1,-1,-1,-1,-1,-1,-1,-1,-1,-1,-1,-1,-1,-1,-1],"split_conditions":[5.9783108E1,1.2364648E3,2.7108722E2,1.0720248E3,-4.1125572E-1,2.6112173E2,1.0035115E0,9.9136406E-1,-1.5057895E0,3.8989895E1,3.3803818E1,6.524585E-1,1.0028913E0,5.258529E2,1.0035728E0,-1.4724485E-2,2.169201E-3,1.0621847E-1,2.5041608E-2,7.964114E-3,-5.5807948E-2,-8.454282E-2,-2.7430132E-2,2.0106987E-3,-6.1960746E-2,-3.631776E-2,6.555136E-2,-4.5863073E-2,3.5905685E-2,6.8415396E-2,-8.792978E-3],"split_indices":[1,3,3,3,4,3,2,2,4,1,1,4,2,3,2,0,0,0,0,0,0,0,0,0,0,0,0,0,0,0,0],"split_type":[0,0,0,0,0,0,0,0,0,0,0,0,0,0,0,0,0,0,0,0,0,0,0,0,0,0,0,0,0,0,0],"sum_hessian":[6.1256636E3,4.930162E3,1.1955017E3,4.8973574E3,3.2804276E1,4.468685E2,7.486332E2,4.8651426E3,3.2215084E1,1.8190624E1,1.4613654E1,4.2164594E2,2.5222572E1,8.346429E1,6.651689E2,2.1117278E2,4.6539697E3,5.7451077E0,2.6469978E1,1.5468458E1,2.7221653E0,9.9259815E0,4.6876717E0,4.054107E2,1.6235212E1,4.4983397E0,2.0724234E1,7.3227615E1,1.0236669E1,5.4825454E0,6.5968634E2],"tree_param":{"num_deleted":"0","num_feature":"5","num_nodes":"31","size_leaf_vector":"1"}},{"base_weights":[-2.5804588E-4,4.2668134E-2,-2.055388E-2,-5.6357914E-1,4.8692737E-2,4.5173997E-1,-2.3374794E-2,-8.9839286E-1,-1.5709181E-1,2.9245565E-2,2.2084142E-1,-6.633802E-2,8.224788E-1,-7.2398834E-2,-4.7176112E-3,3.461116E-2,-1.1028873E-1,6.0662396E-2,-5.3025194E-2,9.218219E-3,-3.2969215E-3,1.5988542E-2,8.599916E-2,6.423506E-2,-7.3594585E-2,9.794268E-3,1.0661089E-1,-1.3506288E-2,1.0550418E-2,8.492355E-3,-3.7055572E-3],"categories":[],"categories_nodes":[],"categories_segments":[],"categories_sizes":[],"default_left":[0,0,0,0,0,0,0,0,0,0,0,0,0,0,0,0,0,0,0,0,0,0,0,0,0,0,0,0,0,0,0],"id":9,"left_children":[1,3,5,7,9,11,13,15,17,19,21,23,25,27,29,-1,-1,-1,-1,-1,-1,-1,-1,-1,-1,-1,-1,-1,-1,-1,-1],"loss_changes":[5.337646E0,7.2109723E0,5.5526824E0,2.503561E0,6.5162883E0,4.807835E0,3.7827122E0,3.0395756E0,3.1683133E0,6.8621964E0,7.56133E0,5.8103404E0,2.45502E0,1.2724095E1,8.690817E0,0E0,0E0,0E0,0E0,0E0,0E0,0E0,0E0,0E0,0E0,0E0,0E0,0E0,0E0,0E0,0E0],"parents":[2147483647,0,0,1,1,2,2,3,3,4,4,5,5,6,6,7,7,8,8,9,9,10,10,11,11,12,12,13,13,14,14],"right_children":[2,4,6,8,10,12,14,16,18,20,22,24,26,28,30,-1,-1,-1,-1,-1,-1,-1,-1,-1,-1,-1,-1,-1,-1,-1,-1],"split_conditions":[9.986055E-1,9.2868065E1,5.411109E1,9.9808645E-1,4.6901207E1,9.9985904E-1,-3.458732E-2,-4.890047E-1,7.549093E1,3.0084848E2,4.825341E2,-5.2599333E-2,4.774049E-3,3.3086642E2,5.222804E1,3.461116E-2,-1.1028873E-1,6.0662396E-2,-5.3025194E-2,9.218219E-3,-3.2969215E-3,1.5988542E-2,8.599916E-2,6.423506E-2,-7.3594585E-2,9.794268E-3,1.0661089E-1,-1.3506288E-2,1.0550418E-2,8.492355E-3,-3.7055572E-3],"split_indices":[2,3,3,2,1,2,4,4,3,3,3,4,4,3,1,0,0,0,0,0,0,0,0,0,0,0,0,0,0,0,0],"split_type":[0,0,0,0,0,0,0,0,0,0,0,0,0,0,0,0,0,0,0,0,0,0,0,0,0,0,0,0,0,0,0],"sum_hessian":[6.124609E3,1.9657974E3,4.1588115E3,1.8432323E1,1.947365E3,2.3747402E1,4.1350645E3,9.443668E0,8.988656E0,1.7507567E3,1.9660837E2,1.0247875E1,1.3499526E1,1.1390886E3,2.9959756E3,1.2350318E0,8.208636E0,2.7450173E0,6.243639E0,8.7008997E2,8.806667E2,1.806316E2,1.5976757E1,4.9984274E0,5.2494483E0,3.749834E0,9.749692E0,8.425515E2,2.965371E2,7.938338E2,2.2021418E3],"tree_param":{"num_deleted":"0","num_feature":"5","num_nodes":"31","size_leaf_vector":"1"}},{"base_weights":[-2.0742216E-4,2.7030965E-2,-2.7006974E-2,3.2008503E-2,-4.088572E-1,-8.555692E-2,-7.0786127E-3,-8.837545E-2,4.3771133E-2,-8.5044724E-1,-1.7256042E-1,2.2232417E-2,-1.9443436E-1,2.8790118E-2,-7.0653364E-2,-8.8849224E-2,-6.1482936E-3,4.751154E-3,-5.5566233E-2,-1.2389634E-1,-1.8438643E-2,5.000609E-2,-7.923645E-2,7.5471005E-4,1.2953112E-1,5.689463E-2,-2.2806482E-2,-1.2767421E-2,5.8120107E-3,-1.3885478E-2,1.0570246E-3],"categories":[],"categories_nodes":[],"categories_segments":[],"categories_sizes":[],"default_left":[0,0,0,0,0,0,0,0,0,0,0,0,0,0,0,0,0,0,0,0,0,0,0,0,0,0,0,0,0,0,0],"id":10,"left_children":[1,3,5,7,9,11,13,15,17,19,21,23,25,27,29,-1,-1,-1,-1,-1,-1,-1,-1,-1,-1,-1,-1,-1,-1,-1,-1],"loss_changes":[4.471895E0,6.604849E0,3.6023831E0,4.258754E0,3.4401155E0,9.20565E0,5.257942E0,5.7075367E0,6.165346E0,2.8063955E0,1.0254488E1,7.3728194E0,1.0146085E1,6.7727976E0,4.608419E0,0E0,0E0,0E0,0E0,0E0,0E0,0E0,0E0,0E0,0E0,0E0,0E0,0E0,0E0,0E0,0E0],"parents":[2147483647,0,0,1,1,2,2,3,3,4,4,5,5,6,6,7,7,8,8,9,9,10,10,11,11,12,12,13,13,14,14],"right_children":[2,4,6,8,10,12,14,16,18,20,22,24,26,28,30,-1,-1,-1,-1,-1,-1,-1,-1,-1,-1,-1,-1,-1,-1,-1,-1],"split_conditions":[5.0430298E1,1.002324E0,1.6920062E2,9.9136406E-1,3.4676657E2,1.2728329E2,6.154225E1,3.0084848E2,9.5461E2,4.9254513E1,4.8782034E2,1.0029979E0,9.992687E-1,1.0002542E0,3.9611498E-1,-8.8849224E-2,-6.1482936E-3,4.751154E-3,-5.5566233E-2,-1.2389634E-1,-1.8438643E-2,5.000609E-2,-7.923645E-2,7.5471005E-4,1.2953112E-1,5.689463E-2,-2.2806482E-2,-1.2767421E-2,5.8120107E-3,-1.3885478E-2,1.0570246E-3],"split_indices":[1,2,3,2,3,3,1,3,3,1,3,2,2,2,4,0,0,0,0,0,0,0,0,0,0,0,0,0,0,0,0],"split_type":[0,0,0,0,0,0,0,0,0,0,0,0,0,0,0,0,0,0,0,0,0,0,0,0,0,0,0,0,0,0,0],"sum_hessian":[6.1240806E3,3.0371697E3,3.086911E3,3.003795E3,3.337466E1,7.830374E2,2.3038735E3,2.6679404E2,2.737001E3,1.0727711E1,2.264695E1,3.9388483E2,3.891526E2,1.4732285E3,8.30645E2,7.6337247E0,2.591603E2,2.720943E3,1.6057695E1,6.2322674E0,4.4954433E0,1.0953371E1,1.169358E1,3.903875E2,3.4973006E0,1.5748921E1,3.7340366E2,2.3203847E2,1.24119E3,4.5113165E2,3.795134E2],"tree_param":{"num_deleted":"0","num_feature":"5","num_nodes":"31","size_leaf_vector":"1"}},{"base_weights":[-2.1642026E-4,3.6235817E-2,-1.7447669E-2,-9.0310055E-1,3.937341E-2,4.0902898E-1,-1.9990973E-2,3.7737083E-2,-1.2665801E-1,2.3567893E-2,2.1261638E-1,-6.456463E-2,7.484742E-1,3.5375676E-1,-2.2300659E-2,3.5851647E-3,-1.902866E-2,1.4984625E-2,8.896954E-2,5.8599096E-2,-6.778022E-2,8.857041E-3,9.710398E-2,5.7436552E-2,-5.0389487E-2,-7.421307E-3,-2.7701163E-4],"categories":[],"categories_nodes":[],"categories_segments":[],"categories_sizes":[],"default_left":[0,0,0,0,0,0,0,0,0,0,0,0,0,0,0,0,0,0,0,0,0,0,0,0,0,0,0],"id":11,"left_children":[1,3,5,7,9,11,13,-1,-1,15,17,19,21,23,25,-1,-1,-1,-1,-1,-1,-1,-1,-1,-1,-1,-1],"loss_changes":[3.8473284E0,5.8300085E0,4.5194006E0,3.543707E0,5.3631215E0,4.019483E0,3.5777416E0,0E0,0E0,4.7292194E0,6.8274355E0,4.8789134E0,2.0390244E0,5.1062803E0,4.1677976E0,0E0,0E0,0E0,0E0,0E0,0E0,0E0,0E0,0E0,0E0,0E0,0E0],"parents":[2147483647,0,0,1,1,2,2,3,3,4,4,5,5,6,6,9,9,10,10,11,11,12,12,13,13,14,14],"right_children":[2,4,6,8,10,12,14,-1,-1,16,18,20,22,24,26,-1,-1,-1,-1,-1,-1,-1,-1,-1,-1,-1,-1],"split_conditions":[9.986055E-1,6.579197E1,5.411109E1,-4.890047E-1,4.74584E1,9.9985904E-1,4.0400124E1,3.7737083E-2,-1.2665801E-1,1.9078492E-1,4.825341E2,-5.2599333E-2,4.774049E-3,3.3417217E-2,-3.458732E-2,3.5851647E-3,-1.902866E-2,1.4984625E-2,8.896954E-2,5.8599096E-2,-6.778022E-2,8.857041E-3,9.710398E-2,5.7436552E-2,-5.0389487E-2,-7.421307E-3,-2.7701163E-4],"split_indices":[2,3,3,4,1,2,1,0,0,4,3,4,4,4,4,0,0,0,0,0,0,0,0,0,0,0,0],"split_type":[0,0,0,0,0,0,0,0,0,0,0,0,0,0,0,0,0,0,0,0,0,0,0,0,0,0,0],"sum_hessian":[6.123165E3,1.9650508E3,4.1581143E3,5.586958E0,1.9594639E3,2.370254E1,4.134412E3,1.2268335E0,4.3601246E0,1.7966827E3,1.6278113E2,1.0233945E1,1.34685955E1,2.445836E1,4.1099536E3,1.6998746E3,9.680807E1,1.5008818E2,1.2692948E1,4.987435E0,5.24651E0,3.7494583E0,9.719137E0,1.971698E1,4.74138E0,1.1227832E3,2.9871704E3],"tree_param":{"num_deleted":"0","num_feature":"5","num_nodes":"27","size_leaf_vector":"1"}},{"base_weights":[-1.7853425E-4,5.781672E-3,-1.02939025E-1,7.927783E-3,-3.425359E-1,-1.6092603E-3,-2.449105E-1,5.0327457E-3,4.6869093E-1,-1.6304794E-1,-8.4914273E-1,-3.8011488E-1,7.715352E-2,-7.878169E-1,-1.440745E-1,7.549051E-4,-2.3897473E-2,3.427339E-2,1.18057184E-1,-3.5779446E-3,-6.452212E-2,-1.24420606E-1,-2.6719129E-2,1.9788204E-2,-6.0294718E-2,-2.907149E-2,1.5736299E-2,-9.4571255E-2,2.22435E-2,5.7986993E-2,-2.1186076E-2],"categories":[],"categories_nodes":[],"categories_segments":[],"categories_sizes":[],"default_left":[0,0,0,0,0,0,0,0,0,0,0,0,0,0,0,0,0,0,0,0,0,0,0,0,0,0,0,0,0,0,0],"id":12,"left_children":[1,3,5,7,9,11,13,15,17,19,21,23,25,27,29,-1,-1,-1,-1,-1,-1,-1,-1,-1,-1,-1,-1,-1,-1,-1,-1],"loss_changes":[3.7511635E0,4.3300667E0,4.829811E0,7.673601E0,3.0869756E0,5.9002075E0,7.5414085E0,3.5135558E0,2.8161168E0,1.6601434E0,1.746387E0,4.5098557E0,4.880099E0,3.668499E0,5.969988E0,0E0,0E0,0E0,0E0,0E0,0E0,0E0,0E0,0E0,0E0,0E0,0E0,0E0,0E0,0E0,0E0],"parents":[2147483647,0,0,1,1,2,2,3,3,4,4,5,5,6,6,7,7,8,8,9,9,10,10,11,11,12,12,13,13,14,14],"right_children":[2,4,6,8,10,12,14,16,18,20,22,24,26,28,30,-1,-1,-1,-1,-1,-1,-1,-1,-1,-1,-1,-1,-1,-1,-1,-1],"split_conditions":[6.811092E1,1.2364648E3,5.3313776E2,1.0720248E3,-5.2599333E-2,6.918172E1,1.0077972E0,9.27463E2,9.999946E-1,3.8989895E1,3.3803818E1,2.4800742E2,2.524635E-1,8.437336E2,-9.641272E-3,7.549051E-4,-2.3897473E-2,3.427339E-2,1.18057184E-1,-3.5779446E-3,-6.452212E-2,-1.24420606E-1,-2.6719129E-2,1.9788204E-2,-6.0294718E-2,-2.907149E-2,1.5736299E-2,-9.4571255E-2,2.22435E-2,5.7986993E-2,-2.1186076E-2],"split_indices":[1,3,3,3,4,1,2,3,2,1,1,3,4,3,4,0,0,0,0,0,0,0,0,0,0,0,0,0,0,0,0],"split_type":[0,0,0,0,0,0,0,0,0,0,0,0,0,0,0,0,0,0,0,0,0,0,0,0,0,0,0,0,0,0,0],"sum_hessian":[6.1226396E3,5.787881E3,3.3475885E2,5.753409E3,3.44716E1,1.9592908E2,1.3882977E2,5.71849E3,3.4919125E1,2.6429586E1,8.042012E0,3.3089027E1,1.6284006E2,2.0679169E1,1.1815061E2,5.6610796E3,5.741032E1,3.0928263E1,3.9908614E0,2.176023E1,4.6693573E0,4.112328E0,3.929684E0,9.238242E0,2.3850786E1,2.8679853E1,1.341602E2,1.7939266E1,2.7399042E0,9.469008E0,1.086816E2],"tree_param":{"num_deleted":"0","num_feature":"5","num_nodes":"31","size_leaf_vector":"1"}},{"base_weights":[-1.9355191E-4,5.1986318E-2,-1.0428976E-2,1.6844462E-1,-2.583201E-2,-7.308231E-1,-9.233979E-3,-5.7840526E-1,2.213473E-1,-1.8899722E-1,2.9666703E-2,-1.3573302E-1,-1.1166334E-1,3.8604265E-1,-1.1167278E-2,-9.429467E-3,-1.5335625E-1,1.5282665E-2,4.9637374E-2,4.856707E-3,-3.372173E-2,1.6841947E-3,6.69699E-2,8.095883E-2,-7.448651E-2,-1.1859523E-2,6.769665E-2,3.437703E-2,-1.2853727E-3],"categories":[],"categories_nodes":[],"categories_segments":[],"categories_sizes":[],"default_left":[0,0,0,0,0,0,0,0,0,0,0,0,0,0,0,0,0,0,0,0,0,0,0,0,0,0,0,0,0],"id":13,"left_children":[1,3,5,7,9,11,13,15,17,19,21,23,-1,25,27,-1,-1,-1,-1,-1,-1,-1,-1,-1,-1,-1,-1,-1,-1],"loss_changes":[3.270695E0,9.105552E0,4.400619E0,1.6026752E1,5.4648414E0,1.7920933E0,3.9109955E0,1.2291524E1,7.019264E0,5.4090014E0,3.688335E0,3.1758966E0,0E0,3.7373834E0,3.05019E0,0E0,0E0,0E0,0E0,0E0,0E0,0E0,0E0,0E0,0E0,0E0,0E0,0E0,0E0],"parents":[2147483647,0,0,1,1,2,2,3,3,4,4,5,5,6,6,7,7,8,8,9,9,10,10,11,11,13,13,14,14],"right_children":[2,4,6,8,10,12,14,16,18,20,22,24,-1,26,28,-1,-1,-1,-1,-1,-1,-1,-1,-1,-1,-1,-1,-1,-1],"split_conditions":[3.960923E1,3.0318454E2,9.891601E-1,2.8607246E1,3.9621338E2,-5.0292987E-1,-9.0291303E-1,9.955946E-1,2.6265036E2,3.3102596E1,4.6231142E-1,9.8324805E-1,-1.1166334E-1,9.9482626E-1,5.411109E1,-9.429467E-3,-1.5335625E-1,1.5282665E-2,4.9637374E-2,4.856707E-3,-3.372173E-2,1.6841947E-3,6.69699E-2,8.095883E-2,-7.448651E-2,-1.1859523E-2,6.769665E-2,3.437703E-2,-1.2853727E-3],"split_indices":[1,3,2,1,3,4,4,2,3,1,4,2,0,2,3,0,0,0,0,0,0,0,0,0,0,0,0,0,0],"split_type":[0,0,0,0,0,0,0,0,0,0,0,0,0,0,0,0,0,0,0,0,0,0,0,0,0,0,0,0,0],"sum_hessian":[6.1219287E3,1.0032604E3,5.1186685E3,4.013937E2,6.0186664E2,7.4657044E0,5.1112026E3,2.5894642E1,3.7549908E2,1.5214821E2,4.497184E2,3.468129E0,3.9975755E0,2.3910217E1,5.0872925E3,1.7913904E1,7.980737E0,3.0185098E2,7.36481E1,5.871433E1,9.3433876E1,4.418903E2,7.828139E0,1.2300737E0,2.2380552E0,8.960185E0,1.4950031E1,2.309821E1,5.0641943E3],"tree_param":{"num_deleted":"0","num_feature":"5","num_nodes":"29","size_leaf_vector":"1"}},{"base_weights":[-1.857469E-4,5.121061E-3,-9.176758E-2,6.2216227E-3,-6.2561744E-1,-2.9919153E-1,-3.102642E-2,-7.865674E-3,5.873183E-2,1.1752161E-1,-1.4473985E-1,-4.0123236E-1,6.511447E-1,2.7122095E-1,-1.0205285E-1,-6.9518186E-2,-5.5608107E-4,3.8558297E-2,4.6356968E-3,-7.595075E-2,5.5387497E-2,1.485845E-2,-5.1579E-2,-4.2399492E-2,1.16864935E-1,3.5215043E-2,-1.0006493E-1,-1.2012142E-1,-8.187096E-3],"categories":[],"categories_nodes":[],"categories_segments":[],"categories_sizes":[],"default_left":[0,0,0,0,0,0,0,0,0,0,0,0,0,0,0,0,0,0,0,0,0,0,0,0,0,0,0,0,0],"id":14,"left_children":[1,3,5,7,9,11,13,15,17,19,-1,21,23,25,27,-1,-1,-1,-1,-1,-1,-1,-1,-1,-1,-1,-1,-1,-1],"loss_changes":[2.976001E0,4.0217357E0,4.216359E0,4.2752833E0,6.3330317E0,7.6169047E0,5.6207924E0,7.2158175E0,4.926925E0,2.8026714E0,0E0,4.429983E0,4.799779E0,5.4833727E0,4.597599E0,0E0,0E0,0E0,0E0,0E0,0E0,0E0,0E0,0E0,0E0,0E0,0E0,0E0,0E0],"parents":[2147483647,0,0,1,1,2,2,3,3,4,4,5,5,6,6,7,7,8,8,9,9,11,11,12,12,13,13,14,14],"right_children":[2,4,6,8,10,12,14,16,18,20,-1,22,24,26,28,-1,-1,-1,-1,-1,-1,-1,-1,-1,-1,-1,-1,-1,-1],"split_conditions":[6.811092E1,1.7205161E0,2.524635E-1,3.9621338E2,7.5833984E2,1.1429276E3,1.0056853E0,-1.0538722E0,4.0259628E2,5.4093896E2,-1.4473985E-1,-1.8182093E-2,-2.4942034E-1,6.524585E-1,2.1902759E2,-6.9518186E-2,-5.5608107E-4,3.8558297E-2,4.6356968E-3,-7.595075E-2,5.5387497E-2,1.485845E-2,-5.1579E-2,-4.2399492E-2,1.16864935E-1,3.5215043E-2,-1.0006493E-1,-1.2012142E-1,-8.187096E-3],"split_indices":[1,4,4,3,3,3,2,4,3,3,0,4,4,4,3,0,0,0,0,0,0,0,0,0,0,0,0,0,0],"split_type":[0,0,0,0,0,0,0,0,0,0,0,0,0,0,0,0,0,0,0,0,0,0,0,0,0,0,0,0,0],"sum_hessian":[6.121401E3,5.7870103E3,3.3439044E2,5.7779185E3,9.091625E0,7.485245E1,2.59538E2,4.556392E3,1.2215264E3,5.2242827E0,3.867343E0,6.811636E1,6.736085E0,4.8848495E1,2.1068951E2,1.4223731E1,4.5421685E3,4.346075E1,1.1780656E3,1.4896492E0,3.7346334E0,1.169404E1,5.642232E1,2.2474978E0,4.488587E0,4.6606064E1,2.2424328E0,2.7436473E0,2.0794586E2],"tree_param":{"num_deleted":"0","num_feature":"5","num_nodes":"29","size_leaf_vector":"1"}},{"base_weights":[-2.2601824E-4,2.1148814E-2,-2.1252248E-2,2.6689572E-2,-3.0438888E-1,-5.0858605E-1,-1.8674357E-2,-8.2783625E-2,3.7433833E-2,-4.3597105E-1,4.2244387E-1,3.494193E-1,-8.66823E-1,3.3969122E-1,-2.3686673E-2,-9.858435E-4,-3.0746708E-2,4.069558E-3,-4.910669E-2,-7.9152726E-2,-2.386999E-2,9.712738E-2,-6.6018276E-2,-1.5639625E-2,1.146995E-1,-2.4888296E-2,-1.098364E-1,-8.912795E-6,7.919929E-2,-2.0629905E-2,-1.5284636E-3],"categories":[],"categories_nodes":[],"categories_segments":[],"categories_sizes":[],"default_left":[0,0,0,0,0,0,0,0,0,0,0,0,0,0,0,0,0,0,0,0,0,0,0,0,0,0,0,0,0,0,0],"id":15,"left_children":[1,3,5,7,9,11,13,15,17,19,21,23,25,27,29,-1,-1,-1,-1,-1,-1,-1,-1,-1,-1,-1,-1,-1,-1,-1,-1],"loss_changes":[2.7518344E0,5.4847636E0,3.8682044E0,3.5157259E0,5.051629E0,5.283351E0,5.5250554E0,4.375332E0,4.7091303E0,2.8681717E0,5.5783834E0,2.3923235E0,1.4032536E0,6.5210543E0,4.6458054E0,0E0,0E0,0E0,0E0,0E0,0E0,0E0,0E0,0E0,0E0,0E0,0E0,0E0,0E0,0E0,0E0],"parents":[2147483647,0,0,1,1,2,2,3,3,4,4,5,5,6,6,7,7,8,8,9,9,10,10,11,11,12,12,13,13,14,14],"right_children":[2,4,6,8,10,12,14,16,18,20,22,24,26,28,30,-1,-1,-1,-1,-1,-1,-1,-1,-1,-1,-1,-1,-1,-1,-1,-1],"split_conditions":[5.0430298E1,1.0018542E0,9.974539E-1,9.9136406E-1,6.766868E-1,5.1145412E1,9.986758E-1,-4.6655047E-1,9.5461E2,4.7915447E1,1.2195046E0,5.1033188E1,-3.018712E-1,2.83257E2,5.1145412E1,-9.858435E-4,-3.0746708E-2,4.069558E-3,-4.910669E-2,-7.9152726E-2,-2.386999E-2,9.712738E-2,-6.6018276E-2,-1.5639625E-2,1.146995E-1,-2.4888296E-2,-1.098364E-1,-8.912795E-6,7.919929E-2,-2.0629905E-2,-1.5284636E-3],"split_indices":[1,2,2,2,4,1,2,4,3,1,4,1,4,3,1,0,0,0,0,0,0,0,0,0,0,0,0,0,0,0,0],"split_type":[0,0,0,0,0,0,0,0,0,0,0,0,0,0,0,0,0,0,0,0,0,0,0,0,0,0,0,0,0,0,0],"sum_hessian":[6.1209146E3,3.0352927E3,3.085622E3,2.9853984E3,4.989445E1,1.5203531E1,3.0704185E3,2.6621637E2,2.719182E3,4.2585213E1,7.3092384E0,4.48536E0,1.0718171E1,4.143133E1,3.028987E3,2.0177155E2,6.4444824E1,2.7034202E3,1.5761694E1,1.4121189E1,2.8464025E1,4.9186287E0,2.3906097E0,3.2366285E0,1.2487314E0,3.4869754E0,7.2311954E0,2.4229403E1,1.720193E1,1.3219824E2,2.8967888E3],"tree_param":{"num_deleted":"0","num_feature":"5","num_nodes":"31","size_leaf_vector":"1"}},{"base_weights":[-2.2512036E-4,4.136653E-2,-9.814862E-3,1.3191275E-1,-2.8418029E-2,-3.123954E-1,-6.761564E-3,-5.276901E-1,1.6910286E-1,-1.7111129E-1,2.339706E-2,5.1722544E-1,-4.3198588E-1,2.585061E-1,-9.357198E-3,-8.569101E-3,-1.3981491E-1,1.2462848E-2,4.3010708E-2,-9.44482E-2,-1.37688E-2,-4.464106E-3,1.2004465E-2,1.1534971E-1,-2.1413311E-2,-5.386445E-2,-4.010701E-3,-1.2724183E-2,6.1958056E-2,-8.771532E-2,-8.482335E-4],"categories":[],"categories_nodes":[],"categories_segments":[],"categories_sizes":[],"default_left":[0,0,0,0,0,0,0,0,0,0,0,0,0,0,0,0,0,0,0,0,0,0,0,0,0,0,0,0,0,0,0],"id":16,"left_children":[1,3,5,7,9,11,13,15,17,19,21,23,25,27,29,-1,-1,-1,-1,-1,-1,-1,-1,-1,-1,-1,-1,-1,-1,-1,-1],"loss_changes":[2.441783E0,7.2517614E0,4.594063E0,1.2340913E1,4.7997212E0,5.152188E0,3.3943253E0,1.02295885E1,5.443286E0,4.3393755E0,3.1401207E0,3.3712893E0,1.8159571E0,6.7325554E0,3.6970708E0,0E0,0E0,0E0,0E0,0E0,0E0,0E0,0E0,0E0,0E0,0E0,0E0,0E0,0E0,0E0,0E0],"parents":[2147483647,0,0,1,1,2,2,3,3,4,4,5,5,6,6,7,7,8,8,9,9,10,10,11,11,12,12,13,13,14,14],"right_children":[2,4,6,8,10,12,14,16,18,20,22,24,26,28,30,-1,-1,-1,-1,-1,-1,-1,-1,-1,-1,-1,-1,-1,-1,-1,-1],"split_conditions":[4.069555E1,3.0318454E2,4.098511E1,2.8607246E1,3.989722E2,9.951361E-1,-7.2749764E-1,9.955946E-1,2.7240784E2,-1.150943E0,3.3803818E1,5.800474E2,3.218389E2,4.5579166E1,9.891601E-1,-8.569101E-3,-1.3981491E-1,1.2462848E-2,4.3010708E-2,-9.44482E-2,-1.37688E-2,-4.464106E-3,1.2004465E-2,1.1534971E-1,-2.1413311E-2,-5.386445E-2,-4.010701E-3,-1.2724183E-2,6.1958056E-2,-8.771532E-2,-8.482335E-4],"split_indices":[1,3,1,1,3,2,4,2,3,4,1,3,3,1,2,0,0,0,0,0,0,0,0,0,0,0,0,0,0,0,0],"split_type":[0,0,0,0,0,0,0,0,0,0,0,0,0,0,0,0,0,0,0,0,0,0,0,0,0,0,0,0,0,0,0],"sum_hessian":[6.1199917E3,1.1460681E3,4.9739233E3,4.984428E2,6.476253E2,4.8677624E1,4.925246E3,2.5899567E1,4.7254324E2,1.7190762E2,4.757177E2,5.713949E0,4.2963673E1,4.6770973E1,4.878475E3,1.7905838E1,7.9937296E0,4.0500845E2,6.75348E1,5.9924345E0,1.6591519E2,2.7949588E2,1.9622183E2,2.7469466E0,2.9670026E0,3.34775E1,9.486172E0,2.2925983E1,2.384499E1,3.9044938E0,4.8745703E3],"tree_param":{"num_deleted":"0","num_feature":"5","num_nodes":"31","size_leaf_vector":"1"}},{"base_weights":[-2.3455659E-4,4.4301064E-3,-8.080258E-2,6.3254344E-3,-3.0657932E-1,1.0001277E-2,-2.0828684E-1,3.6543696E-3,4.3217742E-1,-1.4461337E-1,-7.7727056E-1,-3.3400193E-1,8.124814E-2,-4.168921E-1,4.2557873E-2,4.27737E-4,-7.915943E-2,3.169669E-2,1.0850229E-1,-2.5815486E-3,-5.999596E-2,-1.1734009E-1,-2.1258522E-2,1.8992124E-2,-5.3742416E-2,6.2567866E-3,1.2623559E-1,-5.6943953E-2,4.9348347E-2,1.9567132E-2,-4.5400996E-2],"categories":[],"categories_nodes":[],"categories_segments":[],"categories_sizes":[],"default_left":[0,0,0,0,0,0,0,0,0,0,0,0,0,0,0,0,0,0,0,0,0,0,0,0,0,0,0,0,0,0,0],"id":17,"left_children":[1,3,5,7,9,11,13,15,17,19,21,23,25,27,29,-1,-1,-1,-1,-1,-1,-1,-1,-1,-1,-1,-1,-1,-1,-1,-1],"loss_changes":[2.3004713E0,3.4127045E0,3.8800898E0,6.5413527E0,2.5610726E0,4.845676E0,7.312232E0,2.835962E0,2.352202E0,1.4623206E0,1.707665E0,3.7180064E0,3.5322213E0,1.0863427E1,4.970025E0,0E0,0E0,0E0,0E0,0E0,0E0,0E0,0E0,0E0,0E0,0E0,0E0,0E0,0E0,0E0,0E0],"parents":[2147483647,0,0,1,1,2,2,3,3,4,4,5,5,6,6,7,7,8,8,9,9,10,10,11,11,12,12,13,13,14,14],"right_children":[2,4,6,8,10,12,14,16,18,20,22,24,26,28,30,-1,-1,-1,-1,-1,-1,-1,-1,-1,-1,-1,-1,-1,-1,-1,-1],"split_conditions":[6.811092E1,1.2364648E3,5.3313776E2,1.0720248E3,-5.2599333E-2,6.918172E1,6.766868E-1,1.0172919E0,9.999946E-1,3.8989895E1,3.3803818E1,2.4800742E2,1.0149188E0,1.1429276E3,9.5461E2,4.27737E-4,-7.915943E-2,3.169669E-2,1.0850229E-1,-2.5815486E-3,-5.999596E-2,-1.1734009E-1,-2.1258522E-2,1.8992124E-2,-5.3742416E-2,6.2567866E-3,1.2623559E-1,-5.6943953E-2,4.9348347E-2,1.9567132E-2,-4.5400996E-2],"split_indices":[1,3,3,3,4,1,4,2,2,1,1,3,2,3,3,0,0,0,0,0,0,0,0,0,0,0,0,0,0,0,0],"split_type":[0,0,0,0,0,0,0,0,0,0,0,0,0,0,0,0,0,0,0,0,0,0,0,0,0,0,0,0,0,0,0],"sum_hessian":[6.1192085E3,5.785206E3,3.3400223E2,5.7511377E3,3.4068447E1,1.9560162E2,1.384006E2,5.716292E3,3.484563E1,2.631919E1,7.749258E0,3.2927742E1,1.6267387E2,7.520081E1,6.31998E1,5.712811E3,3.4808123E0,3.0881372E1,3.9642582E0,2.1711456E1,4.607732E0,3.9208112E0,3.8284469E0,9.227715E0,2.3700027E1,1.6117769E2,1.4961954E0,6.472898E1,1.0471833E1,4.876835E1,1.443145E1],"tree_param":{"num_deleted":"0","num_feature":"5","num_nodes":"31","size_leaf_vector":"1"}},{"base_weights":[-2.2754638E-4,1.0414721E-2,-3.215663E-2,5.8464557E-3,2.9327545E-1,-1.6893548E-1,-5.7726437E-3,-1.8138474E-2,3.2063935E-2,3.6746216E-1,-6.848072E-1,7.961753E-2,-3.0286384E-1,6.966704E-2,-5.761996E-2,1.3985619E-3,-1.3498316E-2,1.8518085E-2,1.4798747E-3,2.5901624E-3,6.0670402E-2,-1.0830585E-1,-3.12419E-2,6.679562E-2,1.8144986E-3,-1.9308364E-2,-6.516E-2,1.0850594E-2,-2.0226216E-2,-2.6468933E-2,-1.2547505E-3],"categories":[],"categories_nodes":[],"categories_segments":[],"categories_sizes":[],"default_left":[0,0,0,0,0,0,0,0,0,0,0,0,0,0,0,0,0,0,0,0,0,0,0,0,0,0,0,0,0,0,0],"id":18,"left_children":[1,3,5,7,9,11,13,15,17,19,21,23,25,27,29,-1,-1,-1,-1,-1,-1,-1,-1,-1,-1,-1,-1,-1,-1,-1,-1],"loss_changes":[2.0796833E0,5.9298754E0,5.520462E0,2.8418787E0,5.5439887E0,8.258693E0,5.024746E0,8.861423E0,5.7050533E0,5.577344E0,4.760251E-1,3.149232E0,6.0364676E0,5.548848E0,7.1022024E0,0E0,0E0,0E0,0E0,0E0,0E0,0E0,0E0,0E0,0E0,0E0,0E0,0E0,0E0,0E0,0E0],"parents":[2147483647,0,0,1,1,2,2,3,3,4,4,5,5,6,6,7,7,8,8,9,9,10,10,11,11,12,12,13,13,14,14],"right_children":[2,4,6,8,10,12,14,16,18,20,22,24,26,28,30,-1,-1,-1,-1,-1,-1,-1,-1,-1,-1,-1,-1,-1,-1,-1,-1],"split_conditions":[5.7840187E1,5.7433613E1,1.0020152E0,2.4089143E2,5.8902856E2,1.2728329E2,2.988611E2,2.0335199E2,2.579686E2,2.0590727E2,1.0024258E0,1.0005916E0,1.8344541E-1,5.693251E-1,3.4223975E2,1.3985619E-3,-1.3498316E-2,1.8518085E-2,1.4798747E-3,2.5901624E-3,6.0670402E-2,-1.0830585E-1,-3.12419E-2,6.679562E-2,1.8144986E-3,-1.9308364E-2,-6.516E-2,1.0850594E-2,-2.0226216E-2,-2.6468933E-2,-1.2547505E-3],"split_indices":[1,1,2,3,3,3,3,3,3,3,2,2,4,4,3,0,0,0,0,0,0,0,0,0,0,0,0,0,0,0,0],"split_type":[0,0,0,0,0,0,0,0,0,0,0,0,0,0,0,0,0,0,0,0,0,0,0,0,0,0,0,0,0,0,0],"sum_hessian":[6.118368E3,4.589364E3,1.5290048E3,4.517427E3,7.193681E1,2.4637163E2,1.282633E3,2.3593213E3,2.1581052E3,6.744544E1,4.4913735E0,8.641064E1,1.5996098E2,5.2230994E2,7.603232E2,1.8512405E3,5.08081E2,2.1769997E2,1.9404054E3,2.8238375E1,3.9207066E1,1.2481378E0,3.2432358E0,7.2411776E0,7.916946E1,1.2284403E2,3.7116955E1,4.5755902E2,6.4750916E1,1.3504312E2,6.2528E2],"tree_param":{"num_deleted":"0","num_feature":"5","num_nodes":"31","size_leaf_vector":"1"}},{"base_weights":[-2.2547126E-4,2.8596264E-1,-1.3955613E-3,-8.254502E-3,6.9555676E-1,-1.0566522E-1,2.9484595E-3,-7.990502E-2,1.3365182E-1,1.05908535E-1,1.7251906E-1,-7.3636794E-1,-8.311697E-2,1.1721369E-1,-6.1875484E-3,-6.67621E-2,2.6467403E-2,2.6640395E-2,7.090252E-3,-3.0830184E-3,-1.2314879E-1,-1.0490662E-2,5.3902727E-2,4.298044E-3,2.9277984E-2,2.3104396E-2,-8.736464E-4],"categories":[],"categories_nodes":[],"categories_segments":[],"categories_sizes":[],"default_left":[0,0,0,0,0,0,0,0,0,0,0,0,0,0,0,0,0,0,0,0,0,0,0,0,0,0,0],"id":19,"left_children":[1,3,5,7,9,11,13,-1,15,-1,17,19,21,23,25,-1,-1,-1,-1,-1,-1,-1,-1,-1,-1,-1,-1],"loss_changes":[2.0492349E0,3.0086234E0,2.7607944E0,1.8450439E0,1.8001323E0,3.405592E0,6.1094623E0,0E0,1.6454157E0,0E0,3.33028E-2,2.8569565E0,3.262463E0,5.6342797E0,3.2790399E0,0E0,0E0,0E0,0E0,0E0,0E0,0E0,0E0,0E0,0E0,0E0,0E0],"parents":[2147483647,0,0,1,1,2,2,3,3,4,4,5,5,6,6,8,8,10,10,11,11,12,12,13,13,14,14],"right_children":[2,4,6,8,10,12,14,-1,16,-1,18,20,22,24,26,-1,-1,-1,-1,-1,-1,-1,-1,-1,-1,-1,-1],"split_conditions":[-1.8582256E0,1.0044061E3,9.9136406E-1,1.961789E1,1.1429276E3,3.0084848E2,3.6550335E1,-7.990502E-2,5.4830383E2,1.05908535E-1,1.2364648E3,-6.0594714E-1,3.0176005E-1,3.4833843E1,-7.681495E-1,-6.67621E-2,2.6467403E-2,2.6640395E-2,7.090252E-3,-3.0830184E-3,-1.2314879E-1,-1.0490662E-2,5.3902727E-2,4.298044E-3,2.9277984E-2,2.3104396E-2,-8.736464E-4],"split_indices":[4,3,2,1,3,3,1,0,3,0,3,4,4,1,4,0,0,0,0,0,0,0,0,0,0,0,0],"split_type":[0,0,0,0,0,0,0,0,0,0,0,0,0,0,0,0,0,0,0,0,0,0,0,0,0,0,0],"sum_hessian":[6.1173774E3,2.3918196E1,6.0934595E3,1.448981E1,9.428386E0,2.4277599E2,5.8506836E3,1.4999989E0,1.2989811E1,4.9577265E0,4.4706593E0,7.2871723E0,2.3548882E2,4.322794E2,5.418404E3,1.2499855E0,1.1739826E1,1.4808357E0,2.9898233E0,3.4430916E0,3.8440807E0,2.2832352E2,7.1653047E0,3.0469318E2,1.27586205E2,5.664582E1,5.3617583E3],"tree_param":{"num_deleted":"0","num_feature":"5","num_nodes":"27","size_leaf_vector":"1"}},{"base_weights":[-2.0479193E-4,9.019438E-4,-2.6614496E-1,2.0025764E-3,-3.721728E-1,7.0594996E-2,-8.674474E-1,4.1217727E-4,3.5674244E-1,-7.9119724E-1,5.9779984E-1,7.448414E-2,-4.1173298E-2,-1.127129E0,-3.8305366E-1,2.1535475E-4,-2.7885517E-2,-2.0936398E-2,7.8339055E-2,-2.6885709E-2,-1.3104443E-1,1.1289161E-1,-2.3798093E-3,-9.079206E-2,1.5089114E-2,-2.8505519E-2,-1.3702177E-1,-7.958542E-2,1.2386012E-2],"categories":[],"categories_nodes":[],"categories_segments":[],"categories_sizes":[],"default_left":[0,0,0,0,0,0,0,0,0,0,0,0,0,0,0,0,0,0,0,0,0,0,0,0,0,0,0,0,0],"id":20,"left_children":[1,3,5,7,9,11,13,15,17,19,21,-1,23,25,27,-1,-1,-1,-1,-1,-1,-1,-1,-1,-1,-1,-1,-1,-1],"loss_changes":[1.8008752E0,2.5028386E0,5.1957555E0,3.4281082E0,7.7601814E0,1.3253096E0,7.227645E-1,2.9429717E0,6.7142916E0,3.1602516E0,2.0005813E0,0E0,2.7479877E0,7.2711754E-1,1.0858375E0,0E0,0E0,0E0,0E0,0E0,0E0,0E0,0E0,0E0,0E0,0E0,0E0,0E0,0E0],"parents":[2147483647,0,0,1,1,2,2,3,3,4,4,5,5,6,6,7,7,8,8,9,9,10,10,12,12,13,13,14,14],"right_children":[2,4,6,8,10,12,14,16,18,20,22,-1,24,26,28,-1,-1,-1,-1,-1,-1,-1,-1,-1,-1,-1,-1,-1,-1],"split_conditions":[8.158922E1,1.7205161E0,9.5461E2,1.0149188E0,7.23152E1,1.0059942E0,1.7205161E0,1.2364648E3,7.138123E1,6.866051E2,7.020402E2,7.448414E-2,1.0100362E0,7.6831454E-1,1.2364648E3,2.1535475E-4,-2.7885517E-2,-2.0936398E-2,7.8339055E-2,-2.6885709E-2,-1.3104443E-1,1.1289161E-1,-2.3798093E-3,-9.079206E-2,1.5089114E-2,-2.8505519E-2,-1.3702177E-1,-7.958542E-2,1.2386012E-2],"split_indices":[1,4,3,2,1,2,4,3,1,3,3,0,2,4,3,0,0,0,0,0,0,0,0,0,0,0,0,0,0],"split_type":[0,0,0,0,0,0,0,0,0,0,0,0,0,0,0,0,0,0,0,0,0,0,0,0,0,0,0,0,0],"sum_hessian":[6.1168364E3,6.0924785E3,2.435783E1,6.0755493E3,1.6929247E1,1.6179579E1,8.178252E0,6.049429E3,2.6120138E1,1.1950841E1,4.978407E0,1.495253E0,1.4684325E1,4.460246E0,3.7180061E0,6.0129277E3,3.6501297E1,1.1444309E1,1.4675828E1,6.714314E0,5.236527E0,2.244485E0,2.733922E0,1.9875871E0,1.2696738E1,1.4858409E0,2.9744048E0,1.7350695E0,1.9829366E0],"tree_param":{"num_deleted":"0","num_feature":"5","num_nodes":"29","size_leaf_vector":"1"}},{"base_weights":[-2.282001E-4,7.790724E-3,-3.686551E-2,9.122265E-3,-7.0307153E-1,-1.01774596E-1,1.4095076E-3,6.9970866E-3,3.7879145E-1,-1.21409036E-1,-3.7767726E-1,-6.474685E-2,-3.6503547E-1,9.018943E-1,-6.731063E-3,7.6883676E-4,-1.0731393E-1,-5.654492E-2,5.1089443E-2,1.0615726E-1,-8.580557E-2,-1.2074035E-2,3.549573E-2,-2.6661372E-2,-1.4394292E-1,-3.23599E-2,1.272349E-1,2.2164805E-2,-3.2798953E-3],"categories":[],"categories_nodes":[],"categories_segments":[],"categories_sizes":[],"default_left":[0,0,0,0,0,0,0,0,0,0,0,0,0,0,0,0,0,0,0,0,0,0,0,0,0,0,0,0,0],"id":21,"left_children":[1,3,5,7,9,11,13,15,17,-1,19,21,23,25,27,-1,-1,-1,-1,-1,-1,-1,-1,-1,-1,-1,-1,-1,-1],"loss_changes":[1.7975588E0,4.757873E0,2.7297368E0,3.9343767E0,1.1041908E0,3.949267E0,5.079718E0,3.729529E0,3.8596582E0,0E0,5.8842893E0,8.468393E0,4.90762E0,3.2302675E0,4.0967755E0,0E0,0E0,0E0,0E0,0E0,0E0,0E0,0E0,0E0,0E0,0E0,0E0,0E0,0E0],"parents":[2147483647,0,0,1,1,2,2,3,3,4,4,5,5,6,6,7,7,8,8,10,10,11,11,12,12,13,13,14,14],"right_children":[2,4,6,8,10,12,14,16,18,-1,20,22,24,26,28,-1,-1,-1,-1,-1,-1,-1,-1,-1,-1,-1,-1,-1,-1],"split_conditions":[6.0371487E1,1.0106727E0,6.366212E1,1.0069945E0,5.4355534E1,5.693251E-1,1.0013448E0,1.7205161E0,-1.5352985E-1,-1.21409036E-1,5.605118E1,5.4093896E2,7.383053E2,1.000625E0,6.434827E1,7.6883676E-4,-1.0731393E-1,-5.654492E-2,5.1089443E-2,1.0615726E-1,-8.580557E-2,-1.2074035E-2,3.549573E-2,-2.6661372E-2,-1.4394292E-1,-3.23599E-2,1.272349E-1,2.2164805E-2,-3.2798953E-3],"split_indices":[1,2,1,2,1,4,2,4,4,0,1,3,3,2,1,0,0,0,0,0,0,0,0,0,0,0,0,0,0],"split_type":[0,0,0,0,0,0,0,0,0,0,0,0,0,0,0,0,0,0,0,0,0,0,0,0,0,0,0,0,0],"sum_hessian":[6.116501E3,5.018806E3,1.0976947E3,5.010408E3,8.3980055E0,4.0656244E2,6.9113226E2,4.9827817E3,2.7626415E1,2.2046127E0,6.1933928E0,3.5752267E2,4.903977E1,5.2083707E0,6.859239E2,4.9805874E3,2.194664E0,2.9880657E0,2.463835E1,1.2471051E0,4.9462876E0,3.160678E2,4.145487E1,4.60678E1,2.9719706E0,1.2383367E0,3.9700336E0,6.95037E1,6.1642017E2],"tree_param":{"num_deleted":"0","num_feature":"5","num_nodes":"29","size_leaf_vector":"1"}},{"base_weights":[-2.4680948E-4,2.6135933E-1,-1.3138258E-3,-1.6120559E-2,6.504135E-1,-9.329786E-2,2.5141484E-3,2.667454E-1,-3.753446E-1,9.787605E-2,1.7625059E-1,1.9685866E-1,-1.3968718E-1,1.0778949E-1,-5.477848E-3,-6.7303735E-3,1.1954065E-1,-6.706811E-2,5.84037E-2,6.3694525E-3,2.6488781E-2,8.176594E-2,-1.880678E-4,-1.6507568E-2,5.1285286E-2,7.886119E-3,7.0675075E-2,-2.56913E-4,-1.9431194E-2],"categories":[],"categories_nodes":[],"categories_segments":[],"categories_sizes":[],"default_left":[0,0,0,0,0,0,0,0,0,0,0,0,0,0,0,0,0,0,0,0,0,0,0,0,0,0,0,0,0],"id":22,"left_children":[1,3,5,7,9,11,13,15,17,-1,19,21,23,25,27,-1,-1,-1,-1,-1,-1,-1,-1,-1,-1,-1,-1,-1,-1],"loss_changes":[1.7077895E0,2.6934342E0,2.1456559E0,1.6733004E0,1.4420547E0,3.304505E0,4.923001E0,2.9488075E0,2.441937E0,0E0,3.7627175E-2,4.1930947E0,3.5717874E0,7.0977726E0,2.9867811E0,0E0,0E0,0E0,0E0,0E0,0E0,0E0,0E0,0E0,0E0,0E0,0E0,0E0,0E0],"parents":[2147483647,0,0,1,1,2,2,3,3,4,4,5,5,6,6,7,7,8,8,10,10,11,11,12,12,13,13,14,14],"right_children":[2,4,6,8,10,12,14,16,18,-1,20,22,24,26,28,-1,-1,-1,-1,-1,-1,-1,-1,-1,-1,-1,-1,-1,-1],"split_conditions":[-1.8582256E0,1.0044061E3,9.9136406E-1,7.808486E2,1.1429276E3,2.210731E1,3.627453E1,7.224566E2,9.8504335E-1,9.787605E-2,1.4623916E3,5.4830383E2,3.0176005E-1,9.976041E-1,9.27463E2,-6.7303735E-3,1.1954065E-1,-6.706811E-2,5.84037E-2,6.3694525E-3,2.6488781E-2,8.176594E-2,-1.880678E-4,-1.6507568E-2,5.1285286E-2,7.886119E-3,7.0675075E-2,-2.56913E-4,-1.9431194E-2],"split_indices":[4,3,2,3,3,1,1,3,2,0,3,3,4,2,3,0,0,0,0,0,0,0,0,0,0,0,0,0,0],"split_type":[0,0,0,0,0,0,0,0,0,0,0,0,0,0,0,0,0,0,0,0,0,0,0,0,0,0,0,0,0],"sum_hessian":[6.115852E3,2.3852541E1,6.0919995E3,1.4482178E1,9.370364E0,2.4245966E2,5.84954E3,8.246235E0,6.2359424E0,4.907705E0,4.462659E0,3.2973423E1,2.0948624E2,4.118549E2,5.437685E3,6.7468486E0,1.4993863E0,4.998214E0,1.2377286E0,2.7231994E0,1.7394596E0,7.2408857E0,2.5732538E1,2.0236E2,7.1262326E0,3.9395932E2,1.7895563E1,5.3561943E3,8.149087E1],"tree_param":{"num_deleted":"0","num_feature":"5","num_nodes":"29","size_leaf_vector":"1"}},{"base_weights":[-1.5418985E-4,3.6290577E-3,-6.56116E-2,-8.549343E-3,4.8741955E-2,6.2266737E-2,-1.4010672E-1,-5.9788203E-1,-6.579437E-3,3.470587E-1,3.7532832E-2,-4.2200807E-1,1.5785445E-1,-4.483965E-1,-3.4578227E-2,-1.01571396E-1,3.8019442E-3,7.388201E-4,-7.257337E-3,2.3076212E-2,9.622336E-2,4.563539E-3,-3.0076513E-2,-6.1211865E-2,9.0736166E-2,4.631791E-3,5.4638457E-2,-1.0994301E-2,-6.279001E-2,5.150875E-2,-7.4876803E-3],"categories":[],"categories_nodes":[],"categories_segments":[],"categories_sizes":[],"default_left":[0,0,0,0,0,0,0,0,0,0,0,0,0,0,0,0,0,0,0,0,0,0,0,0,0,0,0,0,0,0,0],"id":23,"left_children":[1,3,5,7,9,11,13,15,17,19,21,23,25,27,29,-1,-1,-1,-1,-1,-1,-1,-1,-1,-1,-1,-1,-1,-1,-1,-1],"loss_changes":[1.5148946E0,3.1776588E0,3.1928258E0,5.283665E0,4.0981207E0,5.7941456E0,6.865736E0,4.0672803E0,4.1858406E0,2.9546046E0,3.2647972E0,5.7789016E0,4.48421E0,3.2028427E0,3.5529737E0,0E0,0E0,0E0,0E0,0E0,0E0,0E0,0E0,0E0,0E0,0E0,0E0,0E0,0E0,0E0,0E0],"parents":[2147483647,0,0,1,1,2,2,3,3,4,4,5,5,6,6,7,7,8,8,9,9,10,10,11,11,12,12,13,13,14,14],"right_children":[2,4,6,8,10,12,14,16,18,20,22,24,26,28,30,-1,-1,-1,-1,-1,-1,-1,-1,-1,-1,-1,-1,-1,-1,-1,-1],"split_conditions":[6.811092E1,3.9621338E2,3.7810608E2,-1.0538722E0,4.0259628E2,1.0037135E0,1.0077972E0,3.4511425E1,3.0318454E2,1.0050461E0,1.2195046E0,3.6410958E-1,3.4005347E2,4.4543573E2,2.0074486E-3,-1.01571396E-1,3.8019442E-3,7.388201E-4,-7.257337E-3,2.3076212E-2,9.622336E-2,4.563539E-3,-3.0076513E-2,-6.1211865E-2,9.0736166E-2,4.631791E-3,5.4638457E-2,-1.0994301E-2,-6.279001E-2,5.150875E-2,-7.4876803E-3],"split_indices":[1,3,3,4,3,2,2,1,3,2,4,4,3,3,4,0,0,0,0,0,0,0,0,0,0,0,0,0,0,0,0],"split_type":[0,0,0,0,0,0,0,0,0,0,0,0,0,0,0,0,0,0,0,0,0,0,0,0,0,0,0,0,0,0,0],"sum_hessian":[6.115325E3,5.7820825E3,3.3324292E2,4.5536245E3,1.2284579E3,1.2272954E2,2.105134E2,1.4162457E1,4.539462E3,4.3402145E1,1.1850558E3,1.9668482E1,1.0306105E2,5.2854828E1,1.5765857E2,8.186241E0,5.9762163E0,3.7472444E3,7.9221747E2,3.765813E1,5.7440166E0,1.1581813E3,2.6874434E1,1.7679688E1,1.9887958E0,8.094355E1,2.2117504E1,1.887623E1,3.3978596E1,9.964378E0,1.476942E2],"tree_param":{"num_deleted":"0","num_feature":"5","num_nodes":"31","size_leaf_vector":"1"}},{"base_weights":[-1.3321557E-4,2.4131581E-1,-1.1146758E-3,-5.083173E-2,5.5397785E-1,-3.4912017E-1,-1.493759E-4,2.4840681E-1,-5.462825E-1,7.642382E-1,1.6085891E-1,-8.3272016E-1,5.011513E-2,3.3891067E-1,-1.5242303E-3,-6.541644E-3,1.1239966E-1,-9.708129E-2,-2.3948364E-3,3.0613352E-2,1.0694988E-1,5.572247E-3,2.4488024E-2,-3.178116E-2,-1.1367529E-1,-6.86888E-2,4.526331E-2,-9.459673E-3,6.534257E-2,-2.7932262E-2,7.422129E-5],"categories":[],"categories_nodes":[],"categories_segments":[],"categories_sizes":[],"default_left":[0,0,0,0,0,0,0,0,0,0,0,0,0,0,0,0,0,0,0,0,0,0,0,0,0,0,0,0,0,0,0],"id":24,"left_children":[1,3,5,7,9,11,13,15,17,19,21,23,25,27,29,-1,-1,-1,-1,-1,-1,-1,-1,-1,-1,-1,-1,-1,-1,-1,-1],"loss_changes":[1.4495233E0,2.2901456E0,2.0464108E0,2.1694577E0,8.727412E-1,3.2950983E0,2.8329353E0,2.6124284E0,1.1914685E0,7.328129E-1,3.4623995E-2,8.405504E-1,3.3290122E0,3.4081044E0,3.8109772E0,0E0,0E0,0E0,0E0,0E0,0E0,0E0,0E0,0E0,0E0,0E0,0E0,0E0,0E0,0E0,0E0],"parents":[2147483647,0,0,1,1,2,2,3,3,4,4,5,5,6,6,7,7,8,8,9,9,10,10,11,11,12,12,13,13,14,14],"right_children":[2,4,6,8,10,12,14,16,18,20,22,24,26,28,30,-1,-1,-1,-1,-1,-1,-1,-1,-1,-1,-1,-1,-1,-1,-1,-1],"split_conditions":[-1.8582256E0,9.27463E2,9.798772E-1,7.808486E2,1.1429276E3,1.1429276E3,5.411109E1,7.224566E2,8.437336E2,2.3790958E1,1.4623916E3,-6.254497E-1,1.961789E1,9.9985904E-1,6.579197E1,-6.541644E-3,1.1239966E-1,-9.708129E-2,-2.3948364E-3,3.0613352E-2,1.0694988E-1,5.572247E-3,2.4488024E-2,-3.178116E-2,-1.1367529E-1,-6.86888E-2,4.526331E-2,-9.459673E-3,6.534257E-2,-2.7932262E-2,7.422129E-5],"split_indices":[4,3,2,3,3,3,3,3,3,1,3,4,1,2,3,0,0,0,0,0,0,0,0,0,0,0,0,0,0,0,0],"split_type":[0,0,0,0,0,0,0,0,0,0,0,0,0,0,0,0,0,0,0,0,0,0,0,0,0,0,0,0,0,0,0],"sum_hessian":[6.1147036E3,2.3763527E1,6.09094E3,1.2717694E1,1.1045834E1,1.5850692E1,6.0750894E3,8.239742E0,4.477952E0,6.58161E0,4.464223E0,6.6769767E0,9.173716E0,2.354291E1,6.0515464E3,6.746864E0,1.4928789E0,1.9965987E0,2.481353E0,3.4328263E0,3.1487842E0,2.7217157E0,1.7425071E0,3.2381606E0,3.438816E0,2.9909186E0,6.1827965E0,1.0192898E1,1.3350011E1,4.798328E1,6.0035635E3],"tree_param":{"num_deleted":"0","num_feature":"5","num_nodes":"31","size_leaf_vector":"1"}},{"base_weights":[-1.1483472E-4,8.5768604E-4,-2.348403E-1,-5.132974E-4,2.3335782E-1,7.17804E-2,-7.886204E-1,1.1854485E-3,-2.7050045E-1,-3.6719573E-1,7.0017296E-1,-9.1557674E-2,4.8885357E-2,-1.035366E0,-3.3736E-1,-1.1449723E-4,3.1602696E-2,-2.9092736E-3,-5.4166436E-2,-8.46502E-2,-1.3498032E-2,1.2991807E-1,5.648913E-2,4.2565227E-2,-3.6107343E-2,-2.5109915E-2,-1.267306E-1,-7.327284E-2,1.3579699E-2],"categories":[],"categories_nodes":[],"categories_segments":[],"categories_sizes":[],"default_left":[0,0,0,0,0,0,0,0,0,0,0,0,0,0,0,0,0,0,0,0,0,0,0,0,0,0,0,0,0],"id":25,"left_children":[1,3,5,7,9,11,13,15,17,19,21,23,-1,25,27,-1,-1,-1,-1,-1,-1,-1,-1,-1,-1,-1,-1,-1,-1],"loss_changes":[1.3961873E0,1.941688E0,4.3417606E0,2.7780309E0,1.0268071E1,1.2137301E0,6.613922E-1,4.416978E0,2.4634311E0,1.6970091E0,9.221096E-1,1.9899246E0,0E0,6.6130877E-1,9.772438E-1,0E0,0E0,0E0,0E0,0E0,0E0,0E0,0E0,0E0,0E0,0E0,0E0,0E0,0E0],"parents":[2147483647,0,0,1,1,2,2,3,3,4,4,5,5,6,6,7,7,8,8,9,9,10,10,11,11,13,13,14,14],"right_children":[2,4,6,8,10,12,14,16,18,20,22,24,-1,26,28,-1,-1,-1,-1,-1,-1,-1,-1,-1,-1,-1,-1,-1,-1],"split_conditions":[8.158922E1,1.0149188E0,9.5461E2,1.2364648E3,7.138123E1,1.0172919E0,1.7205161E0,1.0720248E3,-4.1125572E-1,6.366212E1,5.8902856E2,4.5665012E2,4.8885357E-2,7.6831454E-1,1.2364648E3,-1.1449723E-4,3.1602696E-2,-2.9092736E-3,-5.4166436E-2,-8.46502E-2,-1.3498032E-2,1.2991807E-1,5.648913E-2,4.2565227E-2,-3.6107343E-2,-2.5109915E-2,-1.267306E-1,-7.327284E-2,1.3579699E-2],"split_indices":[1,2,3,3,1,2,4,3,4,1,3,3,0,4,3,0,0,0,0,0,0,0,0,0,0,0,0,0,0],"split_type":[0,0,0,0,0,0,0,0,0,0,0,0,0,0,0,0,0,0,0,0,0,0,0,0,0,0,0,0,0],"sum_hessian":[6.114358E3,6.0901216E3,2.4236406E1,6.0554126E3,3.4709156E1,1.615949E1,8.076915E0,6.0185396E3,3.6872746E1,1.5273428E1,1.9435728E1,1.2172758E1,3.9867334E0,4.3848996E0,3.6920154E0,5.9753076E3,4.3232174E1,2.009244E1,1.6780306E1,4.121362E0,1.1152066E1,1.9956695E0,1.7440058E1,3.9716685E0,8.20109E0,1.476149E0,2.908751E0,1.7124792E0,1.9795362E0],"tree_param":{"num_deleted":"0","num_feature":"5","num_nodes":"29","size_leaf_vector":"1"}},{"base_weights":[-1.2096392E-4,1.5108812E-2,-1.509846E-2,1.9178182E-2,-3.4411123E-1,-5.3405613E-2,1.6088985E-2,1.7358456E-3,7.2812274E-2,-7.631479E-1,-1.275948E-1,5.167943E-1,-5.9961338E-2,1.7632474E-1,-2.316146E-3,5.834014E-4,-5.1245894E-2,2.3850757E-3,3.1659395E-2,-9.8977014E-2,4.398674E-2,1.6135918E-2,-5.193547E-2,9.606207E-2,-7.372147E-2,-1.27575565E-2,-1.1514812E-3,3.3591416E-2,-1.8924995E-3,7.447523E-3,-5.3531793E-3],"categories":[],"categories_nodes":[],"categories_segments":[],"categories_sizes":[],"default_left":[0,0,0,0,0,0,0,0,0,0,0,0,0,0,0,0,0,0,0,0,0,0,0,0,0,0,0,0,0,0,0],"id":26,"left_children":[1,3,5,7,9,11,13,15,17,19,21,23,25,27,29,-1,-1,-1,-1,-1,-1,-1,-1,-1,-1,-1,-1,-1,-1,-1,-1],"loss_changes":[1.3950495E0,4.439348E0,3.6846764E0,2.8057969E0,2.989203E0,5.204525E0,5.0153046E0,4.7745395E0,8.777631E0,3.5403414E0,2.758849E0,9.521573E0,4.4835057E0,5.465797E0,6.0065694E0,0E0,0E0,0E0,0E0,0E0,0E0,0E0,0E0,0E0,0E0,0E0,0E0,0E0,0E0,0E0,0E0],"parents":[2147483647,0,0,1,1,2,2,3,3,4,4,5,5,6,6,7,7,8,8,9,9,10,10,11,11,12,12,13,13,14,14],"right_children":[2,4,6,8,10,12,14,16,18,20,22,24,26,28,30,-1,-1,-1,-1,-1,-1,-1,-1,-1,-1,-1,-1,-1,-1,-1,-1],"split_conditions":[5.0430298E1,1.002324E0,1.0020152E0,4.6901207E1,1.0027196E0,-5.8588564E-1,-4.5942347E-2,1.0010213E0,3.1972305E2,5E1,4.825341E2,5.4880596E1,1.0592689E-2,1.0037135E0,2.7535782E2,5.834014E-4,-5.1245894E-2,2.3850757E-3,3.1659395E-2,-9.8977014E-2,4.398674E-2,1.6135918E-2,-5.193547E-2,9.606207E-2,-7.372147E-2,-1.27575565E-2,-1.1514812E-3,3.3591416E-2,-1.8924995E-3,7.447523E-3,-5.3531793E-3],"split_indices":[1,2,2,1,2,4,4,2,3,1,3,1,4,2,3,0,0,0,0,0,0,0,0,0,0,0,0,0,0,0,0],"split_type":[0,0,0,0,0,0,0,0,0,0,0,0,0,0,0,0,0,0,0,0,0,0,0,0,0,0,0,0,0,0,0],"sum_hessian":[6.1138516E3,3.031391E3,3.0824604E3,2.998371E3,3.3019993E1,1.3830117E3,1.6994486E3,2.2633423E3,7.3502893E2,1.0388967E1,2.2631027E1,1.4835403E1,1.3681764E3,1.742079E2,1.5252407E3,2.2464268E3,1.6915525E1,6.1300903E2,1.2201992E2,8.891296E0,1.4976704E0,1.33629265E1,9.268101E0,1.1130123E1,3.7052796E0,5.704277E2,7.977487E2,9.546124E1,7.874666E1,6.1006757E2,9.151732E2],"tree_param":{"num_deleted":"0","num_feature":"5","num_nodes":"31","size_leaf_vector":"1"}},{"base_weights":[-1.1916651E-4,9.926435E-3,-2.1438919E-2,2.6640692E-3,1.2828846E-1,-1.2576919E0,-1.7353239E-2,1.509661E-2,-1.7112646E-1,-3.6050886E-2,4.2408502E-1,-2.2115387E-2,-1.4645383E-1,-9.372559E-2,7.3589957E-3,6.643806E-4,1.3223541E-2,-1.5100785E-2,-1.2518768E-1,3.1676672E-2,-1.8146796E-2,3.5759956E-2,1.2529792E-1,-5.651912E-3,-4.6069738E-2,8.526805E-3,-3.6618635E-3],"categories":[],"categories_nodes":[],"categories_segments":[],"categories_sizes":[],"default_left":[0,0,0,0,0,0,0,0,0,0,0,0,0,0,0,0,0,0,0,0,0,0,0,0,0,0,0],"id":27,"left_children":[1,3,5,7,9,11,13,15,17,19,21,-1,-1,23,25,-1,-1,-1,-1,-1,-1,-1,-1,-1,-1,-1,-1],"loss_changes":[1.3096342E0,3.572512E0,9.870289E0,8.466325E0,1.1694816E1,1.0562792E0,3.6867132E0,3.619715E0,5.498973E0,8.02911E0,4.2852793E0,0E0,0E0,6.494064E0,5.061994E0,0E0,0E0,0E0,0E0,0E0,0E0,0E0,0E0,0E0,0E0,0E0,0E0],"parents":[2147483647,0,0,1,1,2,2,3,3,4,4,5,5,6,6,7,7,8,8,9,9,10,10,13,13,14,14],"right_children":[2,4,6,8,10,12,14,16,18,20,22,-1,-1,24,26,-1,-1,-1,-1,-1,-1,-1,-1,-1,-1,-1,-1],"split_conditions":[5.5698334E1,5.455668E1,9.989627E-1,1.0016735E0,1.0018542E0,1.9016179E2,1.0020152E0,1.0008821E0,1.0077972E0,1.25917694E2,1.0059942E0,-2.2115387E-2,-1.4645383E-1,3.4676657E2,2.7535782E2,6.643806E-4,1.3223541E-2,-1.5100785E-2,-1.2518768E-1,3.1676672E-2,-1.8146796E-2,3.5759956E-2,1.2529792E-1,-5.651912E-3,-4.6069738E-2,8.526805E-3,-3.6618635E-3],"split_indices":[1,1,2,2,2,3,2,2,2,3,2,0,0,3,3,0,0,0,0,0,0,0,0,0,0,0,0],"split_type":[0,0,0,0,0,0,0,0,0,0,0,0,0,0,0,0,0,0,0,0,0,0,0,0,0,0,0],"sum_hessian":[6.1129424E3,4.155471E3,1.9574716E3,3.916206E3,2.3926501E2,5.4372234E0,1.9520344E3,3.6556062E3,2.6059982E2,1.5437508E2,8.488994E1,1.2487451E0,4.1884785E0,4.7653275E2,1.4755016E3,3.4105552E3,2.4505093E2,2.569562E2,3.6436212E0,4.4712708E1,1.0966236E2,7.991165E1,4.978284E0,4.3371347E2,4.2819252E1,5.320333E2,9.434683E2],"tree_param":{"num_deleted":"0","num_feature":"5","num_nodes":"27","size_leaf_vector":"1"}},{"base_weights":[-1.3566774E-4,3.2203652E-2,-6.469189E-3,2.5834304E-1,5.5165817E-3,-5.650268E-1,-5.6038536E-3,-8.964458E-2,2.912115E-1,3.4495696E-2,-3.299089E-1,-2.7461402E-2,-8.383146E-1,1.1335878E-1,-9.760697E-3,2.14961E-2,8.586022E-2,1.6924316E-2,-2.1686037E-3,-5.0767463E-2,6.8327757E-3,-7.524716E-2,7.826189E-2,-1.4335728E-2,-1.0518207E-1,-3.2403138E-3,3.2187965E-2,-5.7828553E-2,-8.2019775E-4],"categories":[],"categories_nodes":[],"categories_segments":[],"categories_sizes":[],"default_left":[0,0,0,0,0,0,0,0,0,0,0,0,0,0,0,0,0,0,0,0,0,0,0,0,0,0,0,0,0],"id":28,"left_children":[1,3,5,7,9,11,13,-1,15,17,19,21,23,25,27,-1,-1,-1,-1,-1,-1,-1,-1,-1,-1,-1,-1,-1,-1],"loss_changes":[1.2523134E0,6.0415874E0,2.4680612E0,4.272003E0,8.727164E0,1.137373E0,2.5260298E0,0E0,4.293392E0,6.2586994E0,5.089349E0,2.7596285E0,6.211717E-1,5.252516E0,4.3680243E0,0E0,0E0,0E0,0E0,0E0,0E0,0E0,0E0,0E0,0E0,0E0,0E0,0E0,0E0],"parents":[2147483647,0,0,1,1,2,2,3,3,4,4,5,5,6,6,8,8,9,9,10,10,11,11,12,12,13,13,14,14],"right_children":[2,4,6,8,10,12,14,-1,16,18,20,22,24,26,28,-1,-1,-1,-1,-1,-1,-1,-1,-1,-1,-1,-1,-1,-1],"split_conditions":[3.960923E1,1.6414813E2,9.891601E-1,2.8607246E1,9.97277E-1,-6.254497E-1,9.961568E-1,-8.964458E-2,1.5794923E2,3.0318454E2,3.8592484E1,4.1905697E1,4.098511E1,9.9546754E-1,9.962321E-1,2.14961E-2,8.586022E-2,1.6924316E-2,-2.1686037E-3,-5.0767463E-2,6.8327757E-3,-7.524716E-2,7.826189E-2,-1.4335728E-2,-1.0518207E-1,-3.2403138E-3,3.2187965E-2,-5.7828553E-2,-8.2019775E-4],"split_indices":[1,3,2,1,2,4,2,0,3,3,1,1,1,2,2,0,0,0,0,0,0,0,0,0,0,0,0,0,0],"split_type":[0,0,0,0,0,0,0,0,0,0,0,0,0,0,0,0,0,0,0,0,0,0,0,0,0,0,0,0,0],"sum_hessian":[6.112145E3,1.00032806E3,5.111817E3,1.0467327E2,8.956548E2,6.8986716E0,5.104918E3,2.1697092E0,1.02503555E2,8.25254E2,7.040074E1,2.6960144E0,4.202657E0,1.714688E2,4.933449E3,9.157574E1,1.0927818E1,2.4224237E2,5.8301166E2,4.8483685E1,2.1917057E1,1.4602375E0,1.2357769E0,1.3805246E0,2.8221326E0,1.0141881E2,7.004998E1,1.2477367E1,4.920972E3],"tree_param":{"num_deleted":"0","num_feature":"5","num_nodes":"29","size_leaf_vector":"1"}},{"base_weights":[-1.4709232E-4,2.2237153E-1,-1.0474324E-3,-1.2213229E-2,5.5549645E-1,1.6106506E-3,-1.0337572E-1,-7.3807806E-2,1.18206166E-1,8.4606886E-2,1.4760669E-1,-8.011877E-1,2.4120566E-3,1.2367514E-1,-1.8726994E-1,-6.261563E-2,2.4069322E-2,4.0898495E-3,2.383483E-2,-1.1815881E-2,-1.0578765E-1,1.0325435E-4,3.4695897E-2,2.2456557E-2,-7.212307E-2,-3.7023313E-2,4.761794E-3],"categories":[],"categories_nodes":[],"categories_segments":[],"categories_sizes":[],"default_left":[0,0,0,0,0,0,0,0,0,0,0,0,0,0,0,0,0,0,0,0,0,0,0,0,0,0,0],"id":29,"left_children":[1,3,5,7,9,11,13,-1,15,-1,17,19,21,23,25,-1,-1,-1,-1,-1,-1,-1,-1,-1,-1,-1,-1],"loss_changes":[1.2248265E0,1.9320694E0,1.65632E0,1.5484453E0,1.0842524E0,3.820761E0,2.9599333E0,0E0,1.4222555E0,0E0,4.3076567E-2,9.1336775E-1,2.8185763E0,3.7591631E0,4.8728676E0,0E0,0E0,0E0,0E0,0E0,0E0,0E0,0E0,0E0,0E0,0E0,0E0],"parents":[2147483647,0,0,1,1,2,2,3,3,4,4,5,5,6,6,8,8,10,10,11,11,12,12,13,13,14,14],"right_children":[2,4,6,8,10,12,14,-1,16,-1,18,20,22,24,26,-1,-1,-1,-1,-1,-1,-1,-1,-1,-1,-1,-1],"split_conditions":[-1.8582256E0,1.0044061E3,9.27463E2,1.961789E1,1.1429276E3,9.798772E-1,-4.890047E-1,-7.3807806E-2,5.4830383E2,8.4606886E-2,1.4623916E3,-6.254497E-1,8.956903E2,1.0039301E0,6.0371487E1,-6.261563E-2,2.4069322E-2,4.0898495E-3,2.383483E-2,-1.1815881E-2,-1.0578765E-1,1.0325435E-4,3.4695897E-2,2.2456557E-2,-7.212307E-2,-3.7023313E-2,4.761794E-3],"split_indices":[4,3,3,1,3,2,4,0,3,0,3,4,3,2,1,0,0,0,0,0,0,0,0,0,0,0,0],"split_type":[0,0,0,0,0,0,0,0,0,0,0,0,0,0,0,0,0,0,0,0,0,0,0,0,0,0,0],"sum_hessian":[6.1115015E3,2.363702E1,6.0878643E3,1.4435181E1,9.201839E0,5.934689E3,1.5317542E2,1.488955E0,1.2946225E1,4.7463655E0,4.455474E0,4.9224863E0,5.9297666E3,4.11994E1,1.1197601E2,1.2482855E0,1.169794E1,2.7142944E0,1.7411792E0,1.7434969E0,3.1789894E0,5.907118E3,2.26482E1,3.7460453E1,3.73895E0,6.262151E1,4.9354504E1],"tree_param":{"num_deleted":"0","num_feature":"5","num_nodes":"27","size_leaf_vector":"1"}},{"base_weights":[-1.6076748E-4,-1.47037795E-2,1.2739904E-2,1.24825565E-2,-1.1308975E-1,8.0949E-2,-1.0003176E-2,-5.505677E-4,4.0214396E-1,7.2841525E-1,-1.3460729E-1,-5.007502E-1,9.045318E-2,-8.2968496E-2,1.4980361E-2,-7.457153E-2,2.5402274E-4,1.203432E-2,7.745096E-2,-3.0958463E-2,8.392498E-2,-1.340327E-1,-1.2793585E-2,7.651692E-2,-7.280951E-2,4.930087E-2,7.3540728E-3,3.1106839E-2,-1.0646862E-2,5.381608E-3,-3.8259532E-3],"categories":[],"categories_nodes":[],"categories_segments":[],"categories_sizes":[],"default_left":[0,0,0,0,0,0,0,0,0,0,0,0,0,0,0,0,0,0,0,0,0,0,0,0,0,0,0,0,0,0,0],"id":30,"left_children":[1,3,5,7,9,11,13,15,17,19,21,23,25,27,29,-1,-1,-1,-1,-1,-1,-1,-1,-1,-1,-1,-1,-1,-1,-1,-1],"loss_changes":[1.1468918E0,7.6875606E0,5.026089E0,1.1438847E1,1.1364843E1,4.5242496E0,4.4314837E0,5.023829E0,7.5562506E0,2.062581E0,4.7156734E0,4.3494334E0,5.396484E0,5.774621E0,3.747006E0,0E0,0E0,0E0,0E0,0E0,0E0,0E0,0E0,0E0,0E0,0E0,0E0,0E0,0E0,0E0,0E0],"parents":[2147483647,0,0,1,1,2,2,3,3,4,4,5,5,6,6,7,7,8,8,9,9,10,10,11,11,12,12,13,13,14,14],"right_children":[2,4,6,8,10,12,14,16,18,20,22,24,26,28,30,-1,-1,-1,-1,-1,-1,-1,-1,-1,-1,-1,-1,-1,-1,-1,-1],"split_conditions":[2.3791896E2,2.0335199E2,2.9047687E2,1.9939465E2,9.9482626E-1,2.8607246E1,3.4676657E2,2.9878439E1,5.2550915E1,9.926856E-1,2.6102299E1,1.961789E1,9.9482626E-1,3.3102596E1,1.09453544E-1,-7.457153E-2,2.5402274E-4,1.203432E-2,7.745096E-2,-3.0958463E-2,8.392498E-2,-1.340327E-1,-1.2793585E-2,7.651692E-2,-7.280951E-2,4.930087E-2,7.3540728E-3,3.1106839E-2,-1.0646862E-2,5.381608E-3,-3.8259532E-3],"split_indices":[3,3,3,3,2,1,3,1,1,2,1,1,2,1,4,0,0,0,0,0,0,0,0,0,0,0,0,0,0,0,0],"split_type":[0,0,0,0,0,0,0,0,0,0,0,0,0,0,0,0,0,0,0,0,0,0,0,0,0,0,0,0,0,0,0],"sum_hessian":[6.111021E3,2.8725908E3,3.2384304E3,2.2513606E3,6.212303E2,8.091469E2,2.4292834E3,2.179462E3,7.1898544E1,1.466989E1,6.0656036E2,1.2176908E1,7.9697003E2,6.190384E2,1.810245E3,8.0101595E0,2.171452E3,4.167939E1,3.0219154E1,1.2422853E0,1.3427606E1,2.2377088E0,6.0432263E2,1.4937296E0,1.0683178E1,3.0997887E1,7.6597217E2,3.415244E1,5.848859E2,1.0467123E3,7.6353265E2],"tree_param":{"num_deleted":"0","num_feature":"5","num_nodes":"31","size_leaf_vector":"1"}},{"base_weights":[-1.4290113E-4,7.210326E-4,-2.0966797E-1,-5.8333616E-4,2.2234504E-1,7.740249E-2,-7.347018E-1,9.108536E-4,-2.4083756E-1,-3.291201E-1,6.476921E-1,-1.8016053E-2,7.173867E-2,-9.6947694E-1,-3.1102064E-1,-1.2058936E-4,2.8779412E-2,-1.0277125E-2,-6.261777E-2,-7.856145E-2,-1.1203644E-2,1.2271686E-1,5.189959E-2,1.3762799E-2,-5.618177E-2,-2.3149941E-2,-1.1922685E-1,-6.870816E-2,1.3264546E-2],"categories":[],"categories_nodes":[],"categories_segments":[],"categories_sizes":[],"default_left":[0,0,0,0,0,0,0,0,0,0,0,0,0,0,0,0,0,0,0,0,0,0,0,0,0,0,0,0,0],"id":31,"left_children":[1,3,5,7,9,11,13,15,17,19,21,23,-1,25,27,-1,-1,-1,-1,-1,-1,-1,-1,-1,-1,-1,-1,-1,-1],"loss_changes":[1.10638E0,1.759794E0,3.839734E0,2.1729827E0,8.568064E0,1.0590543E0,5.904498E-1,3.6536787E0,1.9261067E0,1.5146931E0,8.878746E-1,1.421717E0,0E0,5.950031E-1,8.702532E-1,0E0,0E0,0E0,0E0,0E0,0E0,0E0,0E0,0E0,0E0,0E0,0E0,0E0,0E0],"parents":[2147483647,0,0,1,1,2,2,3,3,4,4,5,5,6,6,7,7,8,8,9,9,10,10,11,11,13,13,14,14],"right_children":[2,4,6,8,10,12,14,16,18,20,22,24,-1,26,28,-1,-1,-1,-1,-1,-1,-1,-1,-1,-1,-1,-1,-1,-1],"split_conditions":[8.158922E1,1.0149188E0,9.5461E2,1.2364648E3,7.138123E1,8.675877E2,1.7205161E0,1.0720248E3,-5.2599333E-2,6.366212E1,5.8902856E2,7.5833984E2,7.173867E-2,7.6831454E-1,1.2364648E3,-1.2058936E-4,2.8779412E-2,-1.0277125E-2,-6.261777E-2,-7.856145E-2,-1.1203644E-2,1.2271686E-1,5.189959E-2,1.3762799E-2,-5.618177E-2,-2.3149941E-2,-1.1922685E-1,-6.870816E-2,1.3264546E-2],"split_indices":[1,2,3,3,1,3,4,3,4,1,3,3,0,4,3,0,0,0,0,0,0,0,0,0,0,0,0,0,0],"split_type":[0,0,0,0,0,0,0,0,0,0,0,0,0,0,0,0,0,0,0,0,0,0,0,0,0,0,0,0,0],"sum_hessian":[6.1102285E3,6.0861304E3,2.4098352E1,6.051511E3,3.461882E1,1.6131035E1,7.9673185E0,6.0150986E3,3.641291E1,1.517307E1,1.9445751E1,1.4883783E1,1.2472508E0,4.297639E0,3.6696799E0,5.9720303E3,4.3068394E1,2.7740328E1,8.672582E0,4.045997E0,1.1127073E1,1.9827384E0,1.7463013E1,1.215248E1,2.7313035E0,1.4694154E0,2.8282235E0,1.6892171E0,1.9804627E0],"tree_param":{"num_deleted":"0","num_feature":"5","num_nodes":"29","size_leaf_vector":"1"}},{"base_weights":[-1.5158998E-4,3.1324467E-3,-5.7075854E-2,-8.147748E-3,4.49649E-2,2.2212751E-2,-1.6906263E-1,-5.620819E-1,-6.304261E-3,3.156438E-1,3.479207E-2,-5.1960695E-1,5.8575273E-2,-3.5595345E-1,5.453535E-2,-9.457478E-2,2.0208927E-3,8.402369E-3,-1.3478952E-3,2.0680549E-2,8.9267E-2,-4.6385587E-3,5.9434515E-3,5.601827E-2,-9.2138916E-2,8.807132E-2,3.5650302E-3,-4.8743203E-2,4.2234108E-2,1.6924469E-2,-3.2784365E-2],"categories":[],"categories_nodes":[],"categories_segments":[],"categories_sizes":[],"default_left":[0,0,0,0,0,0,0,0,0,0,0,0,0,0,0,0,0,0,0,0,0,0,0,0,0,0,0,0,0,0,0],"id":32,"left_children":[1,3,5,7,9,11,13,15,17,19,21,23,25,27,29,-1,-1,-1,-1,-1,-1,-1,-1,-1,-1,-1,-1,-1,-1,-1,-1],"loss_changes":[1.1425227E0,2.727043E0,2.9637327E0,4.6448007E0,3.3686762E0,3.893124E0,5.7988186E0,3.3897014E0,2.9420257E0,2.5996313E0,2.3713298E0,5.9094353E0,3.4483159E0,7.9283686E0,2.8554134E0,0E0,0E0,0E0,0E0,0E0,0E0,0E0,0E0,0E0,0E0,0E0,0E0,0E0,0E0,0E0,0E0],"parents":[2147483647,0,0,1,1,2,2,3,3,4,4,5,5,6,6,7,7,8,8,9,9,10,10,11,11,12,12,13,13,14,14],"right_children":[2,4,6,8,10,12,14,16,18,20,22,24,26,28,30,-1,-1,-1,-1,-1,-1,-1,-1,-1,-1,-1,-1,-1,-1,-1,-1],"split_conditions":[6.811092E1,3.9621338E2,5.3313776E2,-1.0538722E0,4.0259628E2,1.00325E0,6.766868E-1,3.4511425E1,3.7037632E1,1.0050461E0,3.3803818E1,1.0023707E0,1.565868E2,1.1429276E3,9.5461E2,-9.457478E-2,2.0208927E-3,8.402369E-3,-1.3478952E-3,2.0680549E-2,8.9267E-2,-4.6385587E-3,5.9434515E-3,5.601827E-2,-9.2138916E-2,8.807132E-2,3.5650302E-3,-4.8743203E-2,4.2234108E-2,1.6924469E-2,-3.2784365E-2],"split_indices":[1,3,3,4,3,2,4,1,1,2,1,2,3,3,3,0,0,0,0,0,0,0,0,0,0,0,0,0,0,0,0],"split_type":[0,0,0,0,0,0,0,0,0,0,0,0,0,0,0,0,0,0,0,0,0,0,0,0,0,0,0,0,0,0,0],"sum_hessian":[6.109707E3,5.7773486E3,3.3235797E2,4.5509756E3,1.2263734E3,1.9505632E2,1.3730165E2,1.4087339E1,4.536888E3,4.3333237E1,1.1830402E3,1.1431508E1,1.836248E2,7.446736E1,6.2834297E1,8.115759E0,5.9715805E0,3.330569E2,4.203831E3,3.759962E1,5.7336164E0,2.7529044E2,9.0774976E2,2.9931564E0,8.438352E0,3.966338E0,1.7965846E2,6.402519E1,1.0442165E1,4.8763268E1,1.4071032E1],"tree_param":{"num_deleted":"0","num_feature":"5","num_nodes":"31","size_leaf_vector":"1"}},{"base_weights":[-1.2903658E-4,3.7994408E-3,-4.4173848E-2,-3.656681E-3,1.3095538E-1,-1.2958765E-1,4.7687203E-2,1.4317095E-3,-1.8452904E-1,1.6325673E-1,-6.30165E-1,-1.2870991E-2,-3.218685E-1,3.5597166E-1,-7.585092E-3,5.358382E-4,-1.5207131E-2,-2.3765003E-2,2.1445941E-2,1.0639085E-2,4.636009E-2,-7.7841416E-2,2.007283E-2,-2.7568553E-2,9.573041E-3,-2.6382074E-2,-1.2444375E-1,-1.0243957E-2,7.375864E-2,-1.2201262E-2,1.331457E-2],"categories":[],"categories_nodes":[],"categories_segments":[],"categories_sizes":[],"default_left":[0,0,0,0,0,0,0,0,0,0,0,0,0,0,0,0,0,0,0,0,0,0,0,0,0,0,0,0,0,0,0],"id":33,"left_children":[1,3,5,7,9,11,13,15,17,19,21,23,25,27,29,-1,-1,-1,-1,-1,-1,-1,-1,-1,-1,-1,-1,-1,-1,-1,-1],"loss_changes":[1.0573463E0,5.319669E0,3.9324687E0,4.878703E0,7.743646E0,5.8212643E0,4.1234627E0,3.1089816E0,3.1252012E0,5.0561795E0,1.7401309E0,4.6663604E0,4.9201927E0,6.5110326E0,3.3343208E0,0E0,0E0,0E0,0E0,0E0,0E0,0E0,0E0,0E0,0E0,0E0,0E0,0E0,0E0,0E0,0E0],"parents":[2147483647,0,0,1,1,2,2,3,3,4,4,5,5,6,6,7,7,8,8,9,9,10,10,11,11,12,12,13,13,14,14],"right_children":[2,4,6,8,10,12,14,16,18,20,22,24,26,28,30,-1,-1,-1,-1,-1,-1,-1,-1,-1,-1,-1,-1,-1,-1,-1,-1],"split_conditions":[5.230603E-1,3.8771054E-1,6.387024E1,3.423104E-1,7.439196E1,5.8632744E1,6.600557E1,6.732875E1,5.800474E2,6.662097E1,1.0720248E3,6.092068E-1,7.383053E2,3.2635367E2,7.32357E1,5.358382E-4,-1.5207131E-2,-2.3765003E-2,2.1445941E-2,1.0639085E-2,4.636009E-2,-7.7841416E-2,2.007283E-2,-2.7568553E-2,9.573041E-3,-2.6382074E-2,-1.2444375E-1,-1.0243957E-2,7.375864E-2,-1.2201262E-2,1.331457E-2],"split_indices":[4,4,1,4,1,1,1,1,3,1,3,4,3,3,1,0,0,0,0,0,0,0,0,0,0,0,0,0,0,0,0],"split_type":[0,0,0,0,0,0,0,0,0,0,0,0,0,0,0,0,0,0,0,0,0,0,0,0,0,0,0,0,0,0,0],"sum_hessian":[6.108833E3,5.609427E3,4.9940637E2,5.2996396E3,3.0978702E2,2.5857175E2,2.4083463E2,5.155592E3,1.4404758E2,2.9792865E2,1.1858354E1,1.615662E2,9.700556E1,3.578749E1,2.0504713E2,5.0279404E3,1.2765174E2,1.2747944E2,1.6568134E1,2.5163869E2,4.6289967E1,1.0116512E1,1.7418419E0,4.679183E1,1.1477437E2,9.247314E1,4.5324216E0,1.6590212E1,1.9197277E1,1.1316568E2,9.1881454E1],"tree_param":{"num_deleted":"0","num_feature":"5","num_nodes":"31","size_leaf_vector":"1"}},{"base_weights":[-1.3842554E-4,6.5382075E-4,-1.989093E-1,-1.5338984E-3,1.3707747E-1,3.073944E-1,-5.999676E-1,-2.2207003E-3,6.3938713E-1,2.00888E-1,-4.6536812E-1,-2.0786051E-1,1.0801746E-1,-1.19708136E-1,-6.5613694E-2,2.428044E-4,-1.0234171E-2,1.5723376E-2,8.965754E-2,8.395685E-3,4.8636217E-2,3.7373837E-2,-7.3840246E-2,7.40389E-2,-8.739038E-2,-3.5998423E-2,3.1502403E-2],"categories":[],"categories_nodes":[],"categories_segments":[],"categories_sizes":[],"default_left":[0,0,0,0,0,0,0,0,0,0,0,0,0,0,0,0,0,0,0,0,0,0,0,0,0,0,0],"id":34,"left_children":[1,3,5,7,9,11,13,15,17,19,21,23,-1,-1,25,-1,-1,-1,-1,-1,-1,-1,-1,-1,-1,-1,-1],"loss_changes":[9.621979E-1,1.8166356E0,5.1099215E0,2.6385698E0,3.7865715E0,4.756911E0,4.348197E0,2.7861571E0,6.546955E-1,2.8821805E0,2.4530187E0,5.489906E0,0E0,0E0,1.052338E0,0E0,0E0,0E0,0E0,0E0,0E0,0E0,0E0,0E0,0E0,0E0,0E0],"parents":[2147483647,0,0,1,1,2,2,3,3,4,4,5,5,6,6,7,7,8,8,9,9,10,10,11,11,14,14],"right_children":[2,4,6,8,10,12,14,16,18,20,22,24,-1,-1,26,-1,-1,-1,-1,-1,-1,-1,-1,-1,-1,-1,-1],"split_conditions":[1.7205161E0,1.0272645E0,7.020402E2,1.0172919E0,8.158922E1,7.23152E1,7.87439E1,6.811092E1,1.4623916E3,6.866051E2,5.12263E2,1.0113571E0,1.0801746E-1,-1.19708136E-1,1.0720248E3,2.428044E-4,-1.0234171E-2,1.5723376E-2,8.965754E-2,8.395685E-3,4.8636217E-2,3.7373837E-2,-7.3840246E-2,7.40389E-2,-8.739038E-2,-3.5998423E-2,3.1502403E-2],"split_indices":[4,4,3,2,1,1,1,1,3,3,3,2,0,0,3,0,0,0,0,0,0,0,0,0,0,0,0],"split_type":[0,0,0,0,0,0,0,0,0,0,0,0,0,0,0,0,0,0,0,0,0,0,0,0,0,0,0],"sum_hessian":[6.108318E3,6.0850615E3,2.325668E1,5.989993E3,9.506808E1,1.038279E1,1.287389E1,5.9845767E3,5.416453E0,8.656566E1,8.502416E0,6.6679344E0,3.714855E0,5.4941792E0,7.3797107E0,5.7199673E3,2.6460953E2,2.4447021E0,2.9717505E0,6.2329426E1,2.4236237E1,1.9968218E0,6.505594E0,2.7050774E0,3.962857E0,4.1920223E0,3.1876884E0],"tree_param":{"num_deleted":"0","num_feature":"5","num_nodes":"27","size_leaf_vector":"1"}},{"base_weights":[-1.1303543E-4,-5.8948997E-2,2.5508774E-3,3.972037E-2,-1.8598053E-1,5.122097E-1,1.4310253E-3,7.20889E-2,-1.0068432E-1,-2.3804711E-1,5.705068E-1,-5.9576422E-2,6.8231905E-1,4.0193517E-3,-1.734512E-1,-9.5128566E-2,9.857166E-3,-6.619816E-2,-1.6954608E-2,9.323161E-2,-4.4303898E-2,8.781829E-2,-1.9273333E-2,2.4071103E-2,1.3830487E-4,-4.50717E-2,9.782957E-4],"categories":[],"categories_nodes":[],"categories_segments":[],"categories_sizes":[],"default_left":[0,0,0,0,0,0,0,0,0,0,0,0,0,0,0,0,0,0,0,0,0,0,0,0,0,0,0],"id":35,"left_children":[1,3,5,7,9,11,13,15,-1,17,19,-1,21,23,25,-1,-1,-1,-1,-1,-1,-1,-1,-1,-1,-1,-1],"loss_changes":[9.5760816E-1,3.324533E0,3.33535E0,5.1463833E0,4.699755E0,2.8213353E0,2.641177E0,4.056501E0,0E0,3.0564976E0,3.2572484E0,0E0,2.1528015E0,3.5871484E0,4.3278465E0,0E0,0E0,0E0,0E0,0E0,0E0,0E0,0E0,0E0,0E0,0E0,0E0],"parents":[2147483647,0,0,1,1,2,2,3,3,4,4,5,5,6,6,7,7,9,9,10,10,12,12,13,13,14,14],"right_children":[2,4,6,8,10,12,14,16,-1,18,20,-1,22,24,26,-1,-1,-1,-1,-1,-1,-1,-1,-1,-1,-1,-1],"split_conditions":[9.9136406E-1,2.9878439E1,-1.150943E0,-8.019495E-2,3.0176005E-1,3.4005347E2,9.27463E2,3.0501663E2,-1.0068432E-1,9.8504335E-1,3.8989895E1,-5.9576422E-2,9.988168E-1,9.924181E-1,6.0532307E1,-9.5128566E-2,9.857166E-3,-6.619816E-2,-1.6954608E-2,9.323161E-2,-4.4303898E-2,8.781829E-2,-1.9273333E-2,2.4071103E-2,1.3830487E-4,-4.50717E-2,9.782957E-4],"split_indices":[2,1,4,4,4,3,3,3,0,2,1,0,2,2,1,0,0,0,0,0,0,0,0,0,0,0,0],"split_type":[0,0,0,0,0,0,0,0,0,0,0,0,0,0,0,0,0,0,0,0,0,0,0,0,0,0,0],"sum_hessian":[6.107813E3,2.6364926E2,5.8441636E3,1.487769E2,1.1487236E2,1.1812372E1,5.8323516E3,1.4521669E2,3.5602002E0,1.0811638E2,6.7559767E0,1.2391523E0,1.057322E1,5.748252E3,8.4099396E1,2.7822204E0,1.4243448E2,1.3834506E1,9.4281876E1,5.0377693E0,1.7182074E0,8.636522E0,1.9366983E0,6.2324768E1,5.6859272E3,3.2882523E1,5.121687E1],"tree_param":{"num_deleted":"0","num_feature":"5","num_nodes":"27","size_leaf_vector":"1"}},{"base_weights":[-1.4152599E-4,1.9269715E-1,-1.0318724E-3,-2.1003976E-1,5.9818125E-1,-2.5171092E-1,1.0034484E-3,3.2399184E-1,-7.594703E-1,8.890763E-3,8.066783E-1,-7.5925216E-2,-6.8583494E-1,1.8361223E-1,-4.8339914E-4,-6.1250288E-2,7.2902955E-2,2.9014243E-2,-1.2346595E-1,4.808558E-2,-7.28178E-2,1.17036045E-1,4.154418E-2,-4.9045943E-2,4.160705E-2,5.588459E-2,-9.0936236E-2,-4.162915E-3,7.597863E-2,-2.8882423E-2,1.906716E-4],"categories":[],"categories_nodes":[],"categories_segments":[],"categories_sizes":[],"default_left":[0,0,0,0,0,0,0,0,0,0,0,0,0,0,0,0,0,0,0,0,0,0,0,0,0,0,0,0,0,0,0],"id":36,"left_children":[1,3,5,7,9,11,13,15,17,19,21,23,25,27,29,-1,-1,-1,-1,-1,-1,-1,-1,-1,-1,-1,-1,-1,-1,-1,-1],"loss_changes":[1.0489373E0,4.7108192E0,3.1029217E0,4.5964026E0,1.7437801E0,3.6857617E0,1.6381587E0,3.5643792E0,4.15233E0,1.9975094E0,1.0099792E0,7.5437803E0,4.4011793E0,6.3556404E0,4.125512E0,0E0,0E0,0E0,0E0,0E0,0E0,0E0,0E0,0E0,0E0,0E0,0E0,0E0,0E0,0E0,0E0],"parents":[2147483647,0,0,1,1,2,2,3,3,4,4,5,5,6,6,7,7,8,8,9,9,10,10,11,11,12,12,13,13,14,14],"right_children":[2,4,6,8,10,12,14,16,18,20,22,24,26,28,30,-1,-1,-1,-1,-1,-1,-1,-1,-1,-1,-1,-1,-1,-1,-1,-1],"split_conditions":[5.411109E1,9.9985904E-1,6.579197E1,-5.2599333E-2,4.774049E-3,1.0004985E0,7.237529E1,4.3203888E1,4.7231117E1,5.1921017E1,4.515741E-2,-4.0247463E-2,5.3799667E1,7.011728E-2,7.7844215E1,-6.1250288E-2,7.2902955E-2,2.9014243E-2,-1.2346595E-1,4.808558E-2,-7.28178E-2,1.17036045E-1,4.154418E-2,-4.9045943E-2,4.160705E-2,5.588459E-2,-9.0936236E-2,-4.162915E-3,7.597863E-2,-2.8882423E-2,1.906716E-4],"split_indices":[3,2,3,4,4,2,3,1,1,1,4,4,1,4,3,0,0,0,0,0,0,0,0,0,0,0,0,0,0,0,0],"split_type":[0,0,0,0,0,0,0,0,0,0,0,0,0,0,0,0,0,0,0,0,0,0,0,0,0,0,0,0,0,0,0],"sum_hessian":[6.1072114E3,2.7077652E1,6.080134E3,1.3826666E1,1.3250985E1,4.7980442E1,6.0321533E3,7.2196627E0,6.6070027E0,3.7355547E0,9.51543E0,3.4987984E1,1.2992458E1,4.7729366E1,5.984424E3,2.0251248E0,5.194538E0,2.1803637E0,4.4266396E0,2.4892385E0,1.2463162E0,3.8993075E0,5.616123E0,1.899052E1,1.5997465E1,1.7496512E0,1.1242806E1,3.4981815E1,1.2747549E1,4.821306E1,5.936211E3],"tree_param":{"num_deleted":"0","num_feature":"5","num_nodes":"31","size_leaf_vector":"1"}},{"base_weights":[-1.19384415E-4,-3.9522614E-2,3.7692226E-3,-1.1932352E-2,-3.2410797E-1,2.8238657E-1,1.3010687E-3,-3.7469078E-2,2.8754905E-1,-4.981477E-1,2.6571068E-1,-7.606537E-2,3.2556903E-1,-2.8064883E-1,4.1753314E-3,-2.0323796E-3,-8.36222E-2,7.319827E-2,-3.3860806E-2,-1.8280117E-2,-8.955091E-2,4.232707E-2,-3.3415794E-2,5.9052117E-2,6.13983E-3,-9.703014E-3,-1.17729045E-1,1.5734872E-2,-3.9835283E-4],"categories":[],"categories_nodes":[],"categories_segments":[],"categories_sizes":[],"default_left":[0,0,0,0,0,0,0,0,0,0,0,0,0,0,0,0,0,0,0,0,0,0,0,0,0,0,0,0,0],"id":37,"left_children":[1,3,5,7,9,11,13,15,17,19,21,-1,23,25,27,-1,-1,-1,-1,-1,-1,-1,-1,-1,-1,-1,-1,-1,-1],"loss_changes":[9.360197E-1,4.304527E0,3.8231897E0,3.8442802E0,5.1066203E0,2.4464579E0,4.4683614E0,6.32041E0,1.1239895E1,4.5684633E0,1.246593E0,0E0,3.293816E0,9.04662E0,6.821223E0,0E0,0E0,0E0,0E0,0E0,0E0,0E0,0E0,0E0,0E0,0E0,0E0,0E0,0E0],"parents":[2147483647,0,0,1,1,2,2,3,3,4,4,5,5,6,6,7,7,8,8,9,9,10,10,12,12,13,13,14,14],"right_children":[2,4,6,8,10,12,14,16,18,20,22,-1,24,26,28,-1,-1,-1,-1,-1,-1,-1,-1,-1,-1,-1,-1,-1,-1],"split_conditions":[-4.890047E-1,-5.143915E-1,-4.6655047E-1,4.9159676E1,5.0482812E2,1.4138771E2,2.8607246E1,9.990982E-1,5.4260002E1,9.967761E-1,1.002097E0,-7.606537E-2,2.866164E2,9.955946E-1,3.627453E1,-2.0323796E-3,-8.36222E-2,7.319827E-2,-3.3860806E-2,-1.8280117E-2,-8.955091E-2,4.232707E-2,-3.3415794E-2,5.9052117E-2,6.13983E-3,-9.703014E-3,-1.17729045E-1,1.5734872E-2,-3.9835283E-4],"split_indices":[4,4,4,1,3,3,1,2,1,2,2,0,3,2,1,0,0,0,0,0,0,0,0,0,0,0,0,0,0],"split_type":[0,0,0,0,0,0,0,0,0,0,0,0,0,0,0,0,0,0,0,0,0,0,0,0,0,0,0,0,0],"sum_hessian":[6.1068735E3,5.477153E2,5.559158E3,5.002577E2,4.7457542E1,4.7817978E1,5.5113403E3,4.617585E2,3.849918E1,3.676469E1,1.0692854E1,1.2404702E0,4.6577507E1,5.464166E1,5.4566987E3,4.5305902E2,8.699497E0,2.2418194E1,1.6080986E1,2.131172E1,1.545297E1,8.701685E0,1.9911689E0,2.2637587E1,2.393992E1,4.6273712E1,8.367944E0,2.7503024E2,5.1816685E3],"tree_param":{"num_deleted":"0","num_feature":"5","num_nodes":"29","size_leaf_vector":"1"}},{"base_weights":[-1.5055668E-4,1.9339295E-1,-9.2892133E-4,-2.3054747E-2,5.0514543E-1,-7.668552E-2,2.2054075E-3,2.4011537E-1,-3.5702163E-1,7.77167E-2,1.3127165E-1,1.7574668E-1,-1.1721348E-1,2.4934338E-1,4.8264794E-4,-5.172269E-3,1.0561233E-1,-6.0984116E-2,4.902283E-2,2.3147827E-3,2.295566E-2,7.458664E-2,-7.0787757E-4,-1.3972925E-2,4.7173556E-2,-3.422333E-2,3.277506E-2,-5.246414E-2,1.8771387E-4],"categories":[],"categories_nodes":[],"categories_segments":[],"categories_sizes":[],"default_left":[0,0,0,0,0,0,0,0,0,0,0,0,0,0,0,0,0,0,0,0,0,0,0,0,0,0,0,0,0],"id":38,"left_children":[1,3,5,7,9,11,13,15,17,-1,19,21,23,25,27,-1,-1,-1,-1,-1,-1,-1,-1,-1,-1,-1,-1,-1,-1],"loss_changes":[9.202209E-1,1.6626756E0,1.4447391E0,1.4390191E0,9.221244E-1,2.4936957E0,2.4876103E0,2.2477803E0,1.8386655E0,0E0,5.2542478E-2,3.5326855E0,2.8359852E0,1.9882574E0,4.250848E0,0E0,0E0,0E0,0E0,0E0,0E0,0E0,0E0,0E0,0E0,0E0,0E0,0E0,0E0],"parents":[2147483647,0,0,1,1,2,2,3,3,4,4,5,5,6,6,7,7,8,8,10,10,11,11,12,12,13,13,14,14],"right_children":[2,4,6,8,10,12,14,16,18,-1,20,22,24,26,28,-1,-1,-1,-1,-1,-1,-1,-1,-1,-1,-1,-1,-1,-1],"split_conditions":[-1.8582256E0,1.0044061E3,9.9136406E-1,7.808486E2,1.1429276E3,2.210731E1,-9.0291303E-1,7.224566E2,9.8504335E-1,7.77167E-2,1.4623916E3,5.4830383E2,3.0176005E-1,3.231211E1,-8.559141E-1,-5.172269E-3,1.0561233E-1,-6.0984116E-2,4.902283E-2,2.3147827E-3,2.295566E-2,7.458664E-2,-7.0787757E-4,-1.3972925E-2,4.7173556E-2,-3.422333E-2,3.277506E-2,-5.246414E-2,1.8771387E-4],"split_indices":[4,3,2,3,3,1,4,3,2,0,3,3,4,1,4,0,0,0,0,0,0,0,0,0,0,0,0,0,0],"split_type":[0,0,0,0,0,0,0,0,0,0,0,0,0,0,0,0,0,0,0,0,0,0,0,0,0,0,0,0,0],"sum_hessian":[6.106249E3,2.3467632E1,6.0827812E3,1.4397553E1,9.070078E0,2.4073601E2,5.8420454E3,8.209435E0,6.188118E0,4.6257825E0,4.4442954E0,3.2841743E1,2.0789426E2,3.9447037E1,5.8025986E3,6.736721E0,1.4727142E0,4.9817686E0,1.2063494E0,2.704537E0,1.7397585E0,7.2266436E0,2.5615099E1,2.0097371E2,6.920557E0,4.2226486E0,3.522439E1,1.4374467E1,5.788224E3],"tree_param":{"num_deleted":"0","num_feature":"5","num_nodes":"29","size_leaf_vector":"1"}},{"base_weights":[-9.4192954E-5,-4.9240533E-3,2.9651126E-2,-1.1575695E-2,4.7939457E-2,8.140118E-2,-6.326731E-2,-6.617883E-3,-1.9632995E-1,2.0605913E-1,-3.531798E-2,6.8297125E-2,8.8662547E-1,-4.5971707E-1,-3.802421E-2,-9.372037E-4,2.7952177E-2,-9.674467E-2,-1.3622685E-2,2.3097066E-2,-5.873221E-2,1.0548071E-1,-4.8034396E-3,8.3863055E-3,-5.3402882E-2,1.4947933E-3,1.2338257E-1,-3.352394E-2,-9.3700975E-2,3.243563E-2,-5.8983383E-3],"categories":[],"categories_nodes":[],"categories_segments":[],"categories_sizes":[],"default_left":[0,0,0,0,0,0,0,0,0,0,0,0,0,0,0,0,0,0,0,0,0,0,0,0,0,0,0,0,0,0,0],"id":39,"left_children":[1,3,5,7,9,11,13,15,17,19,21,23,25,27,29,-1,-1,-1,-1,-1,-1,-1,-1,-1,-1,-1,-1,-1,-1,-1,-1],"loss_changes":[8.774998E-1,1.8482549E0,4.1079173E0,4.2746696E0,7.741215E0,5.7265472E0,3.042593E0,3.5861797E0,5.520674E0,4.143532E0,5.3973575E0,5.1147566E0,2.6142826E0,7.6800656E-1,2.210804E0,0E0,0E0,0E0,0E0,0E0,0E0,0E0,0E0,0E0,0E0,0E0,0E0,0E0,0E0,0E0,0E0],"parents":[2147483647,0,0,1,1,2,2,3,3,4,4,5,5,6,6,7,7,8,8,9,9,10,10,11,11,12,12,13,13,14,14],"right_children":[2,4,6,8,10,12,14,16,18,20,22,24,26,28,30,-1,-1,-1,-1,-1,-1,-1,-1,-1,-1,-1,-1,-1,-1,-1,-1],"split_conditions":[5.12263E2,3.8771054E-1,2.0834123E-1,3.423104E-1,4.86349E-1,1.9078492E-1,2.3820244E-1,3.2989702E-1,9.992687E-1,7.439196E1,4.4843838E1,1.6388893E-1,9.9766064E-1,1.0094746E0,5.258529E2,-9.372037E-4,2.7952177E-2,-9.674467E-2,-1.3622685E-2,2.3097066E-2,-5.873221E-2,1.0548071E-1,-4.8034396E-3,8.3863055E-3,-5.3402882E-2,1.4947933E-3,1.2338257E-1,-3.352394E-2,-9.3700975E-2,3.243563E-2,-5.8983383E-3],"split_indices":[3,4,4,4,4,4,4,4,2,1,1,4,2,2,3,0,0,0,0,0,0,0,0,0,0,0,0,0,0,0,0],"split_type":[0,0,0,0,0,0,0,0,0,0,0,0,0,0,0,0,0,0,0,0,0,0,0,0,0,0,0,0,0,0,0],"sum_hessian":[6.105911E3,5.2536846E3,8.522263E2,4.6672065E3,5.864782E2,5.47452E2,3.047743E2,4.5462456E3,1.2096098E2,2.0178331E2,3.846949E2,5.39753E2,7.6990085E0,1.7213892E1,2.875604E2,4.5038623E3,4.2383373E1,7.6547585E0,1.1330622E2,1.9632765E2,5.4556494E0,3.4908466E0,3.8120404E2,5.269946E2,1.2758369E1,2.490197E0,5.2088113E0,1.5003391E1,2.2104998E0,1.4930964E1,2.7262943E2],"tree_param":{"num_deleted":"0","num_feature":"5","num_nodes":"31","size_leaf_vector":"1"}},{"base_weights":[-9.1508235E-5,1.780787E-1,-9.0637844E-4,-2.1142825E-1,5.439741E-1,-2.2669297E-1,9.2487567E-4,2.1681651E-1,-8.784133E-1,-8.31553E-2,7.4721515E-1,-6.758417E-2,-6.2061197E-1,5.9030622E-2,-3.016306E-3,-5.7318818E-2,5.072385E-2,1.3373072E-2,-1.2457942E-1,5.5889618E-2,-5.0087698E-2,1.1352598E-1,4.0983703E-2,-2.8785547E-2,7.388428E-2,5.2407335E-2,-8.27666E-2,-1.7668357E-2,2.2050451E-2,-1.5754696E-2,-3.1973217E-5],"categories":[],"categories_nodes":[],"categories_segments":[],"categories_sizes":[],"default_left":[0,0,0,0,0,0,0,0,0,0,0,0,0,0,0,0,0,0,0,0,0,0,0,0,0,0,0,0,0,0,0],"id":40,"left_children":[1,3,5,7,9,11,13,15,17,19,21,23,25,27,29,-1,-1,-1,-1,-1,-1,-1,-1,-1,-1,-1,-1,-1,-1,-1,-1],"loss_changes":[8.8674414E-1,4.077962E0,2.5140164E0,4.2432404E0,1.9252863E0,3.0240037E0,1.3814977E0,2.4572682E0,2.303173E0,1.4808474E0,9.9315643E-1,6.6013894E0,3.7404447E0,1.4623673E1,2.3541725E0,0E0,0E0,0E0,0E0,0E0,0E0,0E0,0E0,0E0,0E0,0E0,0E0,0E0,0E0,0E0,0E0],"parents":[2147483647,0,0,1,1,2,2,3,3,4,4,5,5,6,6,7,7,8,8,9,9,10,10,11,11,12,12,13,13,14,14],"right_children":[2,4,6,8,10,12,14,16,18,20,22,24,26,28,30,-1,-1,-1,-1,-1,-1,-1,-1,-1,-1,-1,-1,-1,-1,-1,-1],"split_conditions":[5.411109E1,9.998263E-1,6.579197E1,-2.3544043E-2,-6.522131E-3,1.0004985E0,1.0512295E2,4.3203888E1,4.675154E1,4.948832E1,5.301589E1,1.0002254E0,5.3799667E1,-3.458732E-2,1.1175998E2,-5.7318818E-2,5.072385E-2,1.3373072E-2,-1.2457942E-1,5.5889618E-2,-5.0087698E-2,1.1352598E-1,4.0983703E-2,-2.8785547E-2,7.388428E-2,5.2407335E-2,-8.27666E-2,-1.7668357E-2,2.2050451E-2,-1.5754696E-2,-3.1973217E-5],"split_indices":[3,2,3,4,4,2,3,1,1,1,1,2,1,4,3,0,0,0,0,0,0,0,0,0,0,0,0,0,0,0,0],"split_type":[0,0,0,0,0,0,0,0,0,0,0,0,0,0,0,0,0,0,0,0,0,0,0,0,0,0,0,0,0,0,0],"sum_hessian":[6.105548E3,2.6806509E1,6.0787417E3,1.3188794E1,1.3617716E1,4.791741E1,6.030824E3,8.442883E0,4.745911E0,3.4776819E0,1.0140034E1,3.496584E1,1.2951572E1,3.8218628E2,5.6486377E3,2.0077555E0,6.4351273E0,1.4332519E0,3.312659E0,1.237556E0,2.240126E0,3.6160214E0,6.524012E0,2.7969238E1,6.9966025E0,1.7493433E0,1.1202229E1,1.5533672E2,2.2684955E2,9.589382E1,5.552744E3],"tree_param":{"num_deleted":"0","num_feature":"5","num_nodes":"31","size_leaf_vector":"1"}},{"base_weights":[-7.5544944E-5,-3.6811095E-2,3.5478938E-3,-1.2655896E-1,3.8841628E-2,2.546897E-1,1.3267838E-3,-1.06799535E-1,-1.1324046E0,5.878967E-1,1.2428011E-2,3.4313774E-1,-2.5897405E-1,-2.5547254E-1,3.937118E-3,-5.9149E-3,-4.363228E-2,-2.0576777E-2,-1.4044595E-1,1.09840214E-1,1.6903369E-2,-4.157385E-3,1.7411409E-2,1.840772E-2,8.3610386E-2,-7.8409486E-2,2.3852805E-2,-8.74269E-3,-1.0884465E-1,1.4235869E-2,-3.4294926E-4],"categories":[],"categories_nodes":[],"categories_segments":[],"categories_sizes":[],"default_left":[0,0,0,0,0,0,0,0,0,0,0,0,0,0,0,0,0,0,0,0,0,0,0,0,0,0,0,0,0,0,0],"id":41,"left_children":[1,3,5,7,9,11,13,15,17,19,21,23,25,27,29,-1,-1,-1,-1,-1,-1,-1,-1,-1,-1,-1,-1,-1,-1,-1,-1],"loss_changes":[8.129136E-1,3.727684E0,3.1004622E0,4.8680997E0,4.3184667E0,2.3026316E0,3.695286E0,3.8571248E0,9.039464E-1,2.737226E0,2.5009818E0,3.1392841E0,2.2058628E0,7.66959E0,5.5646205E0,0E0,0E0,0E0,0E0,0E0,0E0,0E0,0E0,0E0,0E0,0E0,0E0,0E0,0E0,0E0,0E0],"parents":[2147483647,0,0,1,1,2,2,3,3,4,4,5,5,6,6,7,7,8,8,9,9,10,10,11,11,12,12,13,13,14,14],"right_children":[2,4,6,8,10,12,14,16,18,20,22,24,26,28,30,-1,-1,-1,-1,-1,-1,-1,-1,-1,-1,-1,-1,-1,-1,-1,-1],"split_conditions":[-4.890047E-1,3.989722E2,-4.6655047E-1,5.1593422E1,4.1332312E2,4.81618E1,2.8607246E1,-5.143915E-1,2.8507547E2,9.926856E-1,9.93923E-1,9.974539E-1,1.0001975E0,9.955946E-1,3.627453E1,-5.9149E-3,-4.363228E-2,-2.0576777E-2,-1.4044595E-1,1.09840214E-1,1.6903369E-2,-4.157385E-3,1.7411409E-2,1.840772E-2,8.3610386E-2,-7.8409486E-2,2.3852805E-2,-8.74269E-3,-1.0884465E-1,1.4235869E-2,-3.4294926E-4],"split_indices":[4,3,4,1,3,1,1,4,3,2,2,2,2,2,1,0,0,0,0,0,0,0,0,0,0,0,0,0,0,0,0],"split_type":[0,0,0,0,0,0,0,0,0,0,0,0,0,0,0,0,0,0,0,0,0,0,0,0,0,0,0,0,0,0,0],"sum_hessian":[6.105145E3,5.472989E2,5.5578457E3,2.5002177E2,2.9727716E2,4.772648E1,5.5101196E3,2.4628969E2,3.732081E0,1.2669119E1,2.8460803E2,4.0998844E1,6.7276344E0,5.4471348E1,5.455648E3,2.1620499E2,3.0084703E1,1.2456527E0,2.4864283E0,4.9787426E0,7.6903768E0,2.139075E2,7.070053E1,3.203563E1,8.963216E0,2.9927156E0,3.7349186E0,4.6246464E1,8.224884E0,2.7474548E2,5.180903E3],"tree_param":{"num_deleted":"0","num_feature":"5","num_nodes":"31","size_leaf_vector":"1"}},{"base_weights":[-8.931158E-5,5.2423067E-3,-2.4484996E-2,6.253709E-3,-5.5537397E-1,-8.8304415E-2,1.3193802E-2,4.2977547E-3,3.4719995E-1,-1.07001446E-1,-2.4752875E-1,-2.222973E-2,-2.084086E-1,8.50287E-1,5.639203E-3,4.868414E-4,-9.595246E-2,-5.3257227E-2,4.7111522E-2,1.0209123E-1,-6.9949344E-2,-2.6012419E-2,1.0736797E-2,1.020281E-2,-3.246316E-2,-2.7760122E-2,1.1921703E-1,-7.625173E-2,1.2114228E-3],"categories":[],"categories_nodes":[],"categories_segments":[],"categories_sizes":[],"default_left":[0,0,0,0,0,0,0,0,0,0,0,0,0,0,0,0,0,0,0,0,0,0,0,0,0,0,0,0,0],"id":42,"left_children":[1,3,5,7,9,11,13,15,17,-1,19,21,23,25,27,-1,-1,-1,-1,-1,-1,-1,-1,-1,-1,-1,-1,-1,-1],"loss_changes":[7.9426575E-1,2.844937E0,2.634748E0,3.3350773E0,1.1666687E0,3.2228782E0,4.3555927E0,2.7414088E0,3.3608162E0,0E0,4.7012053E0,8.151236E0,5.236495E0,2.7064142E0,3.4130716E0,0E0,0E0,0E0,0E0,0E0,0E0,0E0,0E0,0E0,0E0,0E0,0E0,0E0,0E0],"parents":[2147483647,0,0,1,1,2,2,3,3,4,4,5,5,6,6,7,7,8,8,10,10,11,11,12,12,13,13,14,14],"right_children":[2,4,6,8,10,12,14,16,18,-1,20,22,24,26,28,-1,-1,-1,-1,-1,-1,-1,-1,-1,-1,-1,-1,-1,-1],"split_conditions":[6.0371487E1,1.0106727E0,6.366212E1,1.0069945E0,5.4355534E1,6.2375828E1,1.0013448E0,1.7205161E0,-1.5352985E-1,-1.07001446E-1,5.605118E1,1.0026702E0,1.0026702E0,1.000625E0,1.0015928E0,4.868414E-4,-9.595246E-2,-5.3257227E-2,4.7111522E-2,1.0209123E-1,-6.9949344E-2,-2.6012419E-2,1.0736797E-2,1.020281E-2,-3.246316E-2,-2.7760122E-2,1.1921703E-1,-7.625173E-2,1.2114228E-3],"split_indices":[1,2,1,2,1,1,2,4,4,0,1,2,2,2,2,0,0,0,0,0,0,0,0,0,0,0,0,0,0],"split_type":[0,0,0,0,0,0,0,0,0,0,0,0,0,0,0,0,0,0,0,0,0,0,0,0,0,0,0,0,0],"sum_hessian":[6.1045327E3,5.0103237E3,1.0942091E3,5.002288E3,8.035735E0,4.057003E2,6.885088E2,4.974761E3,2.7526812E1,2.0810008E0,5.9547343E0,2.6248218E2,1.4321811E2,5.160347E0,6.8334845E2,4.9728115E3,1.9493487E0,2.9913046E0,2.4535507E1,1.233652E0,4.721082E0,9.2210304E1,1.7027188E2,3.904619E1,1.0417193E2,1.2440833E0,3.9162638E0,4.736002E0,6.786124E2],"tree_param":{"num_deleted":"0","num_feature":"5","num_nodes":"29","size_leaf_vector":"1"}},{"base_weights":[-1.13878115E-4,1.7823398E-1,-8.2668144E-4,-2.024377E-2,4.659153E-1,-7.296923E-2,2.1562076E-3,-6.9815546E-2,1.02158934E-1,7.236652E-1,1.1896037E-1,6.1274786E-2,-1.3712935E-1,1.7400928E-1,1.164434E-5,-5.7890933E-2,2.1497827E-2,3.065827E-2,8.47363E-2,1.8046655E-3,2.1188973E-2,9.6001495E-3,-9.179673E-2,-1.6683973E-2,4.880967E-2,-5.9498306E-3,4.0355295E-2,2.6851768E-2,-1.1132583E-4],"categories":[],"categories_nodes":[],"categories_segments":[],"categories_sizes":[],"default_left":[0,0,0,0,0,0,0,0,0,0,0,0,0,0,0,0,0,0,0,0,0,0,0,0,0,0,0,0,0],"id":43,"left_children":[1,3,5,7,9,11,13,-1,15,17,19,21,23,25,27,-1,-1,-1,-1,-1,-1,-1,-1,-1,-1,-1,-1,-1,-1],"loss_changes":[7.7624434E-1,1.3973182E0,1.3088744E0,1.3443606E0,8.0506897E-1,2.0884776E0,2.1527302E0,0E0,1.1900187E0,2.504611E-2,4.7231577E-2,2.767379E0,3.122518E0,3.882837E0,1.7431169E0,0E0,0E0,0E0,0E0,0E0,0E0,0E0,0E0,0E0,0E0,0E0,0E0,0E0,0E0],"parents":[2147483647,0,0,1,1,2,2,3,3,4,4,5,5,6,6,8,8,9,9,10,10,11,11,12,12,13,13,14,14],"right_children":[2,4,6,8,10,12,14,-1,16,18,20,22,24,26,28,-1,-1,-1,-1,-1,-1,-1,-1,-1,-1,-1,-1,-1,-1],"split_conditions":[-1.8582256E0,1.0044061E3,9.9136406E-1,1.961789E1,1.1429276E3,2.6102299E1,9.924181E-1,-6.9815546E-2,5.4830383E2,2.210731E1,1.4623916E3,-1.0061238E-1,3.0176005E-1,5.1894214E2,5.411109E1,-5.7890933E-2,2.1497827E-2,3.065827E-2,8.47363E-2,1.8046655E-3,2.1188973E-2,9.6001495E-3,-9.179673E-2,-1.6683973E-2,4.880967E-2,-5.9498306E-3,4.0355295E-2,2.6851768E-2,-1.1132583E-4],"split_indices":[4,3,2,1,3,1,2,0,3,1,3,4,4,3,3,0,0,0,0,0,0,0,0,0,0,0,0,0,0],"split_type":[0,0,0,0,0,0,0,0,0,0,0,0,0,0,0,0,0,0,0,0,0,0,0,0,0,0,0,0,0],"sum_hessian":[6.1038975E3,2.3306946E1,6.0805903E3,1.434183E1,8.9651165E0,2.4050098E2,5.8400894E3,1.4740782E0,1.2867752E1,4.520852E0,4.4442644E0,7.778799E1,1.62713E2,7.099278E1,5.7690967E3,1.2415373E0,1.1626214E1,1.8297637E0,2.6910887E0,2.7031074E0,1.741157E0,7.599496E1,1.7930334E0,1.5603162E2,6.68138E0,3.5559753E1,3.543303E1,2.3077023E1,5.7460195E3],"tree_param":{"num_deleted":"0","num_feature":"5","num_nodes":"29","size_leaf_vector":"1"}},{"base_weights":[-9.522976E-5,6.5020337E-3,-1.949067E-2,-4.2395755E-3,7.811827E-2,-2.745656E-1,-6.8389094E-3,-2.6113877E-1,-5.015575E-4,6.464491E-2,6.8058443E-1,5.7036936E-2,-4.961471E-1,-1.5247591E-1,1.0942214E-2,1.1248299E-1,-3.1872038E-2,1.8135975E-4,-2.3588851E-2,7.5550387E-3,-8.63061E-2,-6.710889E-2,8.829611E-2,-2.547355E-2,8.519181E-2,-2.1207867E-2,-6.78625E-2,3.137037E-2,-2.4199141E-2,2.8342772E-2,-1.1147372E-3],"categories":[],"categories_nodes":[],"categories_segments":[],"categories_sizes":[],"default_left":[0,0,0,0,0,0,0,0,0,0,0,0,0,0,0,0,0,0,0,0,0,0,0,0,0,0,0,0,0,0,0],"id":44,"left_children":[1,3,5,7,9,11,13,15,17,19,21,23,25,27,29,-1,-1,-1,-1,-1,-1,-1,-1,-1,-1,-1,-1,-1,-1,-1,-1],"loss_changes":[7.812333E-1,3.5050025E0,4.999021E0,3.805101E0,4.779668E0,5.4071355E0,3.827606E0,4.8937902E0,2.129435E0,5.9569364E0,4.1196456E0,7.7060437E0,2.1360931E0,6.787085E0,7.933961E0,0E0,0E0,0E0,0E0,0E0,0E0,0E0,0E0,0E0,0E0,0E0,0E0,0E0,0E0,0E0,0E0],"parents":[2147483647,0,0,1,1,2,2,3,3,4,4,5,5,6,6,7,7,8,8,9,9,10,10,11,11,12,12,13,13,14,14],"right_children":[2,4,6,8,10,12,14,16,18,20,22,24,26,28,30,-1,-1,-1,-1,-1,-1,-1,-1,-1,-1,-1,-1,-1,-1,-1,-1],"split_conditions":[2.0834123E-1,4.9286157E2,2.2057398E-1,9.9173045E-1,1.8344541E-1,2.0335199E2,1.6664915E2,1.961789E1,4.7772958E2,1.7560653E-1,9.952392E-1,1.7136107E2,1.0013448E0,1.1382994E2,1.9016179E2,1.1248299E-1,-3.1872038E-2,1.8135975E-4,-2.3588851E-2,7.5550387E-3,-8.63061E-2,-6.710889E-2,8.829611E-2,-2.547355E-2,8.519181E-2,-2.1207867E-2,-6.78625E-2,3.137037E-2,-2.4199141E-2,2.8342772E-2,-1.1147372E-3],"split_indices":[4,3,4,2,4,3,3,1,3,4,2,3,2,3,3,0,0,0,0,0,0,0,0,0,0,0,0,0,0,0,0],"split_type":[0,0,0,0,0,0,0,0,0,0,0,0,0,0,0,0,0,0,0,0,0,0,0,0,0,0,0,0,0,0,0],"sum_hessian":[6.1034536E3,4.5548193E3,1.5486344E3,3.96157E3,5.93249E2,7.220438E1,1.47643E3,5.5828636E1,3.9057415E3,5.813551E2,1.1893938E1,2.9219385E1,4.2984993E1,1.5982248E2,1.3166075E3,1.4876204E0,5.4341015E1,3.8686833E3,3.7058247E1,5.7550836E2,5.846722E0,1.2472849E0,1.0646653E1,2.1475632E1,7.7437544E0,1.7658197E1,2.5326796E1,2.5341955E1,1.3448053E2,9.784256E1,1.218765E3],"tree_param":{"num_deleted":"0","num_feature":"5","num_nodes":"31","size_leaf_vector":"1"}},{"base_weights":[-8.5617015E-5,8.96711E-4,-1.2870465E-1,-2.3100006E-4,2.8019914E-1,-2.2793914E-1,3.3500305E-1,2.973737E-3,-5.844404E-2,7.61484E-2,7.4110484E-1,-8.687767E-2,-5.435995E-1,8.0887747E-1,-1.9063559E-1,1.6815744E-4,4.534224E-2,6.408804E-4,-2.8836936E-2,3.2697305E-2,-1.2910098E-1,1.376294E-1,-1.5559621E-2,-2.7355352E-2,7.8804344E-2,-7.7669635E-2,-1.317395E-2,9.51129E-2,2.9925508E-2,-6.875496E-2,2.732808E-2],"categories":[],"categories_nodes":[],"categories_segments":[],"categories_sizes":[],"default_left":[0,0,0,0,0,0,0,0,0,0,0,0,0,0,0,0,0,0,0,0,0,0,0,0,0,0,0,0,0,0,0],"id":45,"left_children":[1,3,5,7,9,11,13,15,17,19,21,23,25,27,29,-1,-1,-1,-1,-1,-1,-1,-1,-1,-1,-1,-1,-1,-1,-1,-1],"loss_changes":[7.7132815E-1,1.9083878E0,2.2056332E0,1.1261103E0,2.2350528E0,1.6764724E0,2.2868242E0,3.3293746E0,4.6984324E0,6.5955987E0,4.4074826E0,4.7797337E0,1.0272417E0,5.560994E-2,1.3102016E0,0E0,0E0,0E0,0E0,0E0,0E0,0E0,0E0,0E0,0E0,0E0,0E0,0E0,0E0,0E0,0E0],"parents":[2147483647,0,0,1,1,2,2,3,3,4,4,5,5,6,6,7,7,8,8,9,9,10,10,11,11,12,12,13,13,14,14],"right_children":[2,4,6,8,10,12,14,16,18,20,22,24,26,28,30,-1,-1,-1,-1,-1,-1,-1,-1,-1,-1,-1,-1,-1,-1,-1,-1],"split_conditions":[1.2364648E3,1.1429276E3,1.0172919E0,6.811092E1,9.999946E-1,3.9398117E1,1.115527E0,1.0720248E3,6.866051E2,3.9215862E1,2.1657284E-1,3.3803818E1,6.8666E1,7.552209E1,1.7205161E0,1.6815744E-4,4.534224E-2,6.408804E-4,-2.8836936E-2,3.2697305E-2,-1.2910098E-1,1.376294E-1,-1.5559621E-2,-2.7355352E-2,7.8804344E-2,-7.7669635E-2,-1.317395E-2,9.51129E-2,2.9925508E-2,-6.875496E-2,2.732808E-2],"split_indices":[3,3,2,1,2,1,4,3,3,1,4,1,1,1,4,0,0,0,0,0,0,0,0,0,0,0,0,0,0,0,0],"split_type":[0,0,0,0,0,0,0,0,0,0,0,0,0,0,0,0,0,0,0,0,0,0,0,0,0,0,0,0,0,0,0],"sum_hessian":[6.1029707E3,6.057698E3,4.5272648E1,6.034333E3,2.3365042E1,3.7710876E1,7.561771E0,5.720365E3,3.139679E2,1.7002821E1,6.3622212E0,2.6944992E1,1.0765884E1,3.6933184E0,3.8684525E0,5.7050034E3,1.536171E1,2.4565146E2,6.8316444E1,1.5009882E1,1.9929391E0,3.4110913E0,2.95113E0,2.2773342E1,4.171651E0,6.3092604E0,4.4566245E0,2.2100766E0,1.4832417E0,1.6350496E0,2.2334027E0],"tree_param":{"num_deleted":"0","num_feature":"5","num_nodes":"31","size_leaf_vector":"1"}},{"base_weights":[-6.348502E-5,-2.7230026E-3,5.435308E-2,4.414675E-3,-4.6747137E-2,-1.3252522E-1,7.507815E-2,-3.1208417E-3,5.5970367E-2,3.0666787E-2,-1.13727555E-1,1.120471E0,5.3478144E-2,8.6294435E-4,-7.7234665E-3,-3.7134714E-2,8.8778585E-3,5.0574983E-3,-3.8517214E-2,-1.3167717E-2,5.2476745E-2,1.6233468E-2,1.3504948E-1,1.3517153E-2,-9.210709E-3],"categories":[],"categories_nodes":[],"categories_segments":[],"categories_sizes":[],"default_left":[0,0,0,0,0,0,0,0,0,0,0,0,0,0,0,0,0,0,0,0,0,0,0,0,0],"id":46,"left_children":[1,3,5,7,9,-1,11,13,15,17,19,21,23,-1,-1,-1,-1,-1,-1,-1,-1,-1,-1,-1,-1],"loss_changes":[8.8342613E-1,1.8289769E0,8.232218E0,1.9460958E0,4.2140064E0,0E0,6.289103E0,3.8072128E0,8.988574E0,3.1443396E0,5.0609555E0,1.0242081E0,3.301332E0,0E0,0E0,0E0,0E0,0E0,0E0,0E0,0E0,0E0,0E0,0E0,0E0],"parents":[2147483647,0,0,1,1,2,2,3,3,4,4,6,6,7,7,8,8,9,9,10,10,11,11,12,12],"right_children":[2,4,6,8,10,-1,12,14,16,18,20,22,24,-1,-1,-1,-1,-1,-1,-1,-1,-1,-1,-1,-1],"split_conditions":[1.0077972E0,6.0532307E1,5.4355534E1,1.0022341E0,2.7108722E2,-1.3252522E-1,5.6741356E1,5.4657112E1,5.092161E1,6.524585E-1,8.437336E2,3.9611498E-1,7.383053E2,8.6294435E-4,-7.7234665E-3,-3.7134714E-2,8.8778585E-3,5.0574983E-3,-3.8517214E-2,-1.3167717E-2,